{"learner":{"attributes":{"scikit_learn":"{\"_estimator_type\": \"classifier\"}"},"feature_names":["-0.1714692896288031","-0.18466755143291433","-1.2013688016765636","-0.12196959975910057","-0.04387454791734898","-0.11300200928476244","-0.06158379407303222","-0.16209679981659642","-0.16793302645225652","-0.04970696439403985","-0.16440217329951","-0.028741285856664783","-0.035390552600813516","-0.042955299258028254","-0.013281614870058885","-0.057194633660791555","-0.16960915015560768","-0.17115370708833458","-0.1744725474413385","-1.3736571773938961","-1.3714598276027399","-0.13973120192279553","-0.1489118870463073","-0.08014726965335221","-0.15566142432803598","-0.010763009512837094","-0.012107451777478418","-0.13973300164963834","-0.14890718609704007","-0.08014673584659182","-0.1556613943053229","-0.0106685610738475","-0.012005182118417812","-0.02466883065625352","-0.031272390486630317","-0.0230451563960962","-0.026214655177430907","0.001427813709709475","0.0014826437872997916","-0.22721544644782224","-0.23936836871437037","-0.07525553154622772","-0.23495151756654098","0.0374680287743863","0.043444221333941775","-0.22720332382768585","-0.24323609254239772","-0.0978946778840727","-0.2358964234692872","0.0365766503766988","0.04234513480691014","-0.4140054550165004","-0.48834041329936734","-0.23255262057859216","-0.46755439410398614","0.048766817854885264","0.05295606452358398","-0.03914869407758738","-0.17289511037923946","-0.16312596586207964","-0.16093221729544638","-1.316342283664295","-1.3153883882753692","-0.039143978122140564","-0.1728840699195216","-0.16311462864045503","-0.16092533142876464","-1.3163333780274464","-1.315375381290753","-0.017031675880349647","-0.030026235277791913","-0.01764011962990492","-0.015070900001830685","-0.14076322246003314","-0.14033462388732307","-0.09540268927284089","-0.26437568843944076","-0.2505232075535023","-0.2637032528675492","1.1335266830129689","1.1359467007331425","-0.05901305478547111","-0.2623679155254754","-0.25511064604426475","-0.2591940456978486","1.1255896087380572","1.1280380290020882","-0.29377256255240464","-0.15973245222462992","0.034038660711490365","-0.18381594178200059","1.135522751490673","1.135278702458467","-0.1691595024198962","-0.20158367565021204","-0.1168167152870516","-0.19147194592540379","-0.014658775691506424","-0.018848712954381765","-1.4579532008792007","-1.494056831372085","-0.08345878401951694","-1.4859719767717499","-0.08879772536984745","-0.0904370818830761","-0.16654994856468994","-0.21653637857822206","-0.13454647495572797","-0.19481661068542533","-0.0031749902209437055","-0.004094090363360379","-1.0963356939258175","-1.2673399140326196","-0.3499327749819623","-1.230440801051298","-0.004357614038573012","-0.004194370240563965","-0.11642460389073964","-0.1766172824237854","-0.13732327709079195","-0.15246437130048263","-0.02605968882058813","-0.027659714028485525","-0.09314472701426248","-0.14370672448675942","-0.09771859912616487","-0.12746225048300552","0.0031432964315106413","0.0024263098865888125","-0.1209504155034722","-0.19914489882884956","-0.18799267262971858","-0.21294750674116758","1.0642045463479908","1.0637874876466933","-1.3737824923785267","-1.3547347717590499","-0.29797501416794375","-1.4036981050621322","1.342003002186918","1.3407327277377104","-0.17160149344087147","-0.4581618412195745","-0.4235879631572251","-0.44088282778065335","-1.0159633735173061","-1.0162304272806977","-0.968902874660573","-0.37571453141267186","0.759748200156594","-0.7683292540299814","1.4881129012284324","1.487932476808418","-0.21681436061843226","-0.6056310578523486","-0.5621534802884299","-0.6009988905192808","1.4613303209554889","1.4613689382001922","0.01827940003744589","-0.0874901561101501","-0.13115530389558736","-0.09752359377152515","-0.12061340670311574","-0.11979245961251665"],"feature_types":["float","float","float","float","float","float","float","float","float","float","float","float","float","float","float","float","float","float","float","float","float","float","float","float","float","float","float","float","float","float","float","float","float","float","float","float","float","float","float","float","float","float","float","float","float","float","float","float","float","float","float","float","float","float","float","float","float","float","float","float","float","float","float","float","float","float","float","float","float","float","float","float","float","float","float","float","float","float","float","float","float","float","float","float","float","float","float","float","float","float","float","float","float","float","float","float","float","float","float","float","float","float","float","float","float","float","float","float","float","float","float","float","float","float","float","float","float","float","float","float","float","float","float","float","float","float","float","float","float","float","float","float","float","float","float","float","float","float","float","float","float","float","float","float","float","float","float","float","float","float","float","float","float","float","float","float","float","float","float","float","float","float","float","float","float"],"gradient_booster":{"model":{"gbtree_model_param":{"num_parallel_tree":"1","num_trees":"100"},"iteration_indptr":[0,1,2,3,4,5,6,7,8,9,10,11,12,13,14,15,16,17,18,19,20,21,22,23,24,25,26,27,28,29,30,31,32,33,34,35,36,37,38,39,40,41,42,43,44,45,46,47,48,49,50,51,52,53,54,55,56,57,58,59,60,61,62,63,64,65,66,67,68,69,70,71,72,73,74,75,76,77,78,79,80,81,82,83,84,85,86,87,88,89,90,91,92,93,94,95,96,97,98,99,100],"tree_info":[0,0,0,0,0,0,0,0,0,0,0,0,0,0,0,0,0,0,0,0,0,0,0,0,0,0,0,0,0,0,0,0,0,0,0,0,0,0,0,0,0,0,0,0,0,0,0,0,0,0,0,0,0,0,0,0,0,0,0,0,0,0,0,0,0,0,0,0,0,0,0,0,0,0,0,0,0,0,0,0,0,0,0,0,0,0,0,0,0,0,0,0,0,0,0,0,0,0,0,0],"trees":[{"base_weights":[1.9384397E-7,4.7107086E0,-6.6697854E-1,9.994656E0,-9.059334E-1,1.6685854E-1,-8.0303377E-1,1.0096673E1,-1.034142E-1,1.4474121E0,-9.6068895E-1,2.7660263E0,-9.5728114E-2,-5.9672064E-1,-1.1057421E0,3.0370162E0,9.4147635E-1,-1.993172E-1,8.370522E-1,1.715725E-2,-1.0318695E0,1.7605864E0,-7.6882124E-1,-8.1672406E-1,2.9585009E0,-2.496096E-2,-3.3206475E-1,1.0020338E0,-7.3603344E-1,-1.0440425E0,1.2089392E-1,4.123729E0,-1.9122022E-1,-1.3309762E-1,-1.0296757E0,-1.0786368E0,-5.091202E-1,6.337157E-2,-2.952015E-1,8.513406E-2,-3.1689644E-1,2.6725302E0,5.747188E-1,-1.7143524E-1,1.4456108E0,2.4346799E-1,-2.4918123E-1,-3.1212062E-1,1.2089392E-1,-1.7912064E-1,-3.2697856E-1,-1.781808E-1,1.0901034E0],"categories":[],"categories_nodes":[],"categories_segments":[],"categories_sizes":[],"default_left":[0,0,0,0,0,0,0,0,0,0,0,0,0,0,0,0,0,0,0,0,0,0,0,0,0,0,0,0,0,0,0,0,0,0,0,0,0,0,0,0,0,0,0,0,0,0,0,0,0,0,0,0,0],"id":0,"left_children":[1,3,5,7,9,11,13,15,-1,17,19,-1,21,23,25,-1,-1,-1,-1,27,29,31,33,35,-1,-1,-1,-1,37,39,-1,41,43,45,47,49,51,-1,-1,-1,-1,-1,-1,-1,-1,-1,-1,-1,-1,-1,-1,-1,-1],"loss_changes":[9.02539E3,1.0582568E4,2.8560034E2,1.9720117E2,2.3762589E1,8.419754E2,1.3445471E2,2.0449219E0,0E0,1.41793585E1,1.1869156E1,0E0,4.3220288E2,2.9733347E3,9.2907715E-1,0E0,0E0,0E0,0E0,3.383668E1,3.1932068E0,4.2542578E2,4.1944443E1,1.0121539E2,0E0,0E0,0E0,0E0,2.8011103E0,2.8705444E0,0E0,4.233553E2,1.006211E2,5.0077927E1,3.1819763E0,3.0541992E0,2.0693556E2,0E0,0E0,0E0,0E0,0E0,0E0,0E0,0E0,0E0,0E0,0E0,0E0,0E0,0E0,0E0,0E0],"parents":[2147483647,0,0,1,1,2,2,3,3,4,4,5,5,6,6,7,7,9,9,10,10,12,12,13,13,14,14,19,19,20,20,21,21,22,22,23,23,28,28,29,29,31,31,32,32,33,33,34,34,35,35,36,36],"right_children":[2,4,6,8,10,12,14,16,-1,18,20,-1,22,24,26,-1,-1,-1,-1,28,30,32,34,36,-1,-1,-1,-1,38,40,-1,42,44,46,48,50,52,-1,-1,-1,-1,-1,-1,-1,-1,-1,-1,-1,-1,-1,-1,-1,-1],"split_conditions":[-4.3874547E-2,-4.684111E-1,-4.8811722E-1,-2.3138793E-1,-4.2565197E-1,-8.749016E-2,-1.6549833E-1,-1.6190346E-1,-1.034142E-1,-5.662867E-1,-2.3578875E-1,2.7660263E0,-1.2623926E-1,-1.6561584E-1,-1.4891215E-1,3.0370162E0,9.4147635E-1,-1.993172E-1,8.370522E-1,-1.2003525E0,1.5262243E0,-1.3105236E0,-1.3105236E0,-5.680781E-2,2.9585009E0,-2.496096E-2,-3.3206475E-1,1.0020338E0,-3.367916E-1,-2.9388934E-1,1.2089392E-1,-1.5411662E0,-3.0013865E-2,-1.2550473E-1,-9.492714E-2,-1.2814006E-1,1.4646742E0,6.337157E-2,-2.952015E-1,8.513406E-2,-3.1689644E-1,2.6725302E0,5.747188E-1,-1.7143524E-1,1.4456108E0,2.4346799E-1,-2.4918123E-1,-3.1212062E-1,1.2089392E-1,-1.7912064E-1,-3.2697856E-1,-1.781808E-1,1.0901034E0],"split_indices":[4,52,52,53,54,160,58,58,0,111,48,0,162,58,22,0,0,0,0,99,100,79,79,15,0,0,0,0,52,87,0,163,70,1,126,126,135,0,0,0,0,0,0,0,0,0,0,0,0,0,0,0,0],"split_type":[0,0,0,0,0,0,0,0,0,0,0,0,0,0,0,0,0,0,0,0,0,0,0,0,0,0,0,0,0,0,0,0,0,0,0,0,0,0,0,0,0,0,0,0,0,0,0,0,0,0,0,0,0],"sum_hessian":[2.870551E3,3.5527408E2,2.515277E3,1.8265703E2,1.7261705E2,3.528081E2,2.162469E3,1.8089563E2,1.7613984E0,3.346657E0,1.6927039E2,8.983132E0,3.4382498E2,1.2877584E3,8.7471045E2,1.7975072E2,1.144909E0,1.4971887E0,1.8494684E0,1.153716E1,1.5773323E2,9.10643E1,2.5276068E2,1.2621301E3,2.5628347E1,1.0568391E0,8.736536E2,1.4971887E0,1.0039971E1,1.5667639E2,1.0568391E0,4.0688305E1,5.0375996E1,7.397874E1,1.7878194E2,6.8034015E2,5.817899E2,2.1136782E0,7.926293E0,1.2329789E0,1.5544342E2,1.188944E1,2.8798864E1,4.764583E1,2.7301676E0,3.1352892E1,4.2625843E1,1.777251E2,1.0568391E0,1.6821356E1,6.635188E2,5.7095734E2,1.0832601E1],"tree_param":{"num_deleted":"0","num_feature":"165","num_nodes":"53","size_leaf_vector":"1"}},{"base_weights":[-3.3820435E-1,5.7068336E-1,-8.017644E-1,1.3938575E0,-3.153562E-1,-6.177855E-1,-1.075304E0,-3.7745282E-1,1.4839183E0,6.6183406E-1,-7.857331E-1,-7.498726E-1,1.3855306E0,-6.197818E-2,-3.2297885E-1,-9.299E-1,8.664152E-1,1.4335989E0,2.8988378E0,1.5035216E0,-5.487821E-1,-3.4482223E-1,-9.8253113E-1,-1.0440354E0,-4.8154467E-1,-2.1107073E-1,4.3710303E-1,1.3484631E-1,-3.1378555E-1,1.8740014E0,-2.370808E-1,1.4466147E0,-2.2248562E-1,4.7502846E-1,3.5786912E0,-3.1826225E-1,2.0721345E0,-7.003756E-1,1.3562665E0,-4.586409E-1,3.1294718E0,-1.0050327E0,-2.0132752E-2,5.180348E-2,-1.0501343E0,-6.425147E-1,8.77027E-1,1.7042737E-1,1.0325594E0,4.3563828E-1,-1.0184112E-1,4.395008E-1,1.3931464E0,1.1679102E0,3.8164914E-1,-2.6318437E-1,3.210019E-1,7.6166123E-1,-1.3584538E-1,1.2526028E-1,-2.2661085E-1,1.1769673E0,2.6010758E-1,-3.042838E-1,5.971842E-2,4.2965227E-1,-1.9232534E-1,-1.9794688E-1,2.7782008E-1,-3.1750175E-1,-1.5243721E-1,3.7620004E-2,-2.3326163E-1,5.108778E-1,-2.931965E-1],"categories":[],"categories_nodes":[],"categories_segments":[],"categories_sizes":[],"default_left":[0,0,0,0,0,0,0,0,0,0,0,0,0,0,0,0,0,0,0,0,0,0,0,0,0,0,0,0,0,0,0,0,0,0,0,0,0,0,0,0,0,0,0,0,0,0,0,0,0,0,0,0,0,0,0,0,0,0,0,0,0,0,0,0,0,0,0,0,0,0,0,0,0,0,0],"id":1,"left_children":[1,3,5,7,9,11,13,15,17,19,21,23,25,-1,-1,27,29,31,33,35,37,39,41,43,45,-1,-1,-1,-1,47,-1,49,-1,-1,51,-1,53,55,57,59,61,63,65,67,69,71,73,-1,-1,-1,-1,-1,-1,-1,-1,-1,-1,-1,-1,-1,-1,-1,-1,-1,-1,-1,-1,-1,-1,-1,-1,-1,-1,-1,-1],"loss_changes":[1.1381038E3,6.66056E2,8.9346436E1,7.605823E1,2.0291733E2,2.846227E2,5.8343506E-1,1.7088737E1,2.792395E1,1.4717377E2,2.549327E1,7.8907166E1,1.097657E1,0E0,0E0,3.173994E0,1.4509783E1,1.3447449E1,7.296219E0,1.2612546E2,1.8172363E1,3.8374615E1,4.425476E0,3.2561035E0,1.1602855E2,0E0,0E0,0E0,0E0,8.58927E0,0E0,4.774353E0,0E0,0E0,1.2924423E1,0E0,9.687305E1,1.844597E1,1.1282569E1,2.4057928E1,2.1493378E0,2.435135E0,6.068095E0,2.853536E0,1.5811768E0,4.910327E1,8.797099E1,0E0,0E0,0E0,0E0,0E0,0E0,0E0,0E0,0E0,0E0,0E0,0E0,0E0,0E0,0E0,0E0,0E0,0E0,0E0,0E0,0E0,0E0,0E0,0E0,0E0,0E0,0E0,0E0],"parents":[2147483647,0,0,1,1,2,2,3,3,4,4,5,5,6,6,7,7,8,8,9,9,10,10,11,11,12,12,15,15,16,16,17,17,18,18,19,19,20,20,21,21,22,22,23,23,24,24,29,29,31,31,34,34,36,36,37,37,38,38,39,39,40,40,41,41,42,42,43,43,44,44,45,45,46,46],"right_children":[2,4,6,8,10,12,14,16,18,20,22,24,26,-1,-1,28,30,32,34,36,38,40,42,44,46,-1,-1,-1,-1,48,-1,50,-1,-1,52,-1,54,56,58,60,62,64,66,68,70,72,74,-1,-1,-1,-1,-1,-1,-1,-1,-1,-1,-1,-1,-1,-1,-1,-1,-1,-1,-1,-1,-1,-1,-1,-1,-1,-1,-1,-1],"split_conditions":[-4.811649E-1,-6.9418764E-1,-1.6190346E-1,-2.6441646E-1,-1.2623926E-1,9.268908E-1,-4.493971E-1,-2.3935945E-1,-2.5055674E-1,6.63089E-1,-1.3105236E0,-5.676295E-2,-1.7293923E-1,-6.197818E-2,-3.2297885E-1,-1.6587214E-1,-1.6698827E-1,-4.693209E-2,-8.749016E-2,-1.1157347E0,-2.3589154E-1,-7.624293E-2,-4.1288948E-1,-1.7109813E-1,4.3569393E-2,-2.1107073E-1,4.3710303E-1,1.3484631E-1,-3.1378555E-1,-1.3973165E-1,-2.370808E-1,-2.4887866E-1,-2.2248562E-1,4.7502846E-1,-1.5893541E-1,-3.1826225E-1,-1.9890206E-1,-8.107201E-2,-1.1553428E-1,-6.426567E-1,-1.440177E-1,-5.7942532E-2,-6.832935E-1,-1.5565965E-1,-3.913303E-2,-2.3927037E-1,-6.2392022E-2,1.7042737E-1,1.0325594E0,4.3563828E-1,-1.0184112E-1,4.395008E-1,1.3931464E0,1.1679102E0,3.8164914E-1,-2.6318437E-1,3.210019E-1,7.6166123E-1,-1.3584538E-1,1.2526028E-1,-2.2661085E-1,1.1769673E0,2.6010758E-1,-3.042838E-1,5.971842E-2,4.2965227E-1,-1.9232534E-1,-1.9794688E-1,2.7782008E-1,-3.1750175E-1,-1.5243721E-1,3.7620004E-2,-2.3326163E-1,5.108778E-1,-2.931965E-1],"split_indices":[52,89,58,76,162,45,54,40,77,138,79,15,0,0,0,10,17,3,160,99,48,123,51,93,153,0,0,0,0,21,0,82,0,0,163,0,130,123,118,89,1,125,99,24,57,40,126,0,0,0,0,0,0,0,0,0,0,0,0,0,0,0,0,0,0,0,0,0,0,0,0,0,0,0,0],"split_type":[0,0,0,0,0,0,0,0,0,0,0,0,0,0,0,0,0,0,0,0,0,0,0,0,0,0,0,0,0,0,0,0,0,0,0,0,0,0,0,0,0,0,0,0,0,0,0,0,0,0,0,0,0,0,0,0,0,0,0,0,0,0,0,0,0,0,0,0,0,0,0,0,0,0,0],"sum_hessian":[2.6991692E3,9.115974E2,1.7875717E3,4.7226602E2,4.3933142E2,1.0706952E3,7.168764E2,2.2695774E1,4.4957025E2,1.4262544E2,2.96706E2,1.00505347E3,6.564176E1,1.3036704E0,7.1557275E2,1.5890594E1,6.80518E0,4.3607507E2,1.3495156E1,8.3989395E1,5.863604E1,9.2413284E1,2.042927E2,4.7806693E2,5.269866E2,1.8791034E0,6.376266E1,1.010202E0,1.4880391E1,4.1499987E0,2.6551814E0,4.338142E2,2.260863E0,5.732583E0,7.762573E0,1.5086202E1,6.89032E1,5.489977E1,3.7362695E0,9.0322296E1,2.0909896E0,1.9958203E2,4.7106676E0,2.6044364E0,4.754625E2,4.7163235E2,5.5354187E1,3.0073996E0,1.1425991E0,4.3266574E2,1.1484683E0,3.3969476E0,4.3656254E0,1.9851227E1,4.9051968E1,5.037092E1,4.528851E0,2.015397E0,1.7208724E0,2.2747307E1,6.757499E1,1.0045075E0,1.0864819E0,1.982175E2,1.364529E0,1.0195903E0,3.6910772E0,1.5709817E0,1.0334547E0,4.674339E2,8.028584E0,7.0537796E1,4.0109457E2,3.835369E1,1.7000496E1],"tree_param":{"num_deleted":"0","num_feature":"165","num_nodes":"75","size_leaf_vector":"1"}},{"base_weights":[-3.152872E-1,4.7193405E-1,-7.441666E-1,1.2097511E0,-2.858499E-1,-5.5497986E-1,-1.052924E0,-3.162183E-1,1.2906977E0,4.351944E-1,-7.057896E-1,-6.715889E-1,1.2188405E0,-5.312774E-2,-3.163828E-1,-8.668787E-1,6.392948E-1,1.3048981E0,-2.131517E-1,9.366546E-1,-6.934694E-1,-2.7270523E-1,-9.343944E-1,-1.0103046E0,-4.0640378E-1,-1.9456613E-1,3.8564628E-1,1.3731635E-1,-3.028567E-1,1.35284E0,-2.3207296E-1,1.313343E0,-2.024887E-1,4.319865E-2,1.8246144E0,3.0615142E-1,-1.091787E0,2.6056436E-1,-9.300414E-1,-9.621468E-1,2.6917174E-3,-3.349645E-1,-1.0299333E0,-2.2372138E-2,-8.476298E-1,-1.05205454E-1,5.4775965E-1,5.4935694E-1,3.8309595E-1,2.1685766E-1,-2.3903501E-1,6.428884E-1,-7.001324E-2,-3.3094987E-1,4.815319E-1,-6.182168E-2,-3.3776343E-1,3.4863153E-1,-2.9762435E-1,-3.00149E-1,-4.6131574E-2,-2.9210022E-1,4.78037E-2,3.1732935E-1,-1.7570254E-1,2.50991E-1,-2.811576E-1,-3.1196982E-1,-1.2188542E-1,1.2365334E-1,-2.7535E-1,-2.681378E-1,2.5469849E-2],"categories":[],"categories_nodes":[],"categories_segments":[],"categories_sizes":[],"default_left":[0,0,0,0,0,0,0,0,0,0,0,0,0,0,0,0,0,0,0,0,0,0,0,0,0,0,0,0,0,0,0,0,0,0,0,0,0,0,0,0,0,0,0,0,0,0,0,0,0,0,0,0,0,0,0,0,0,0,0,0,0,0,0,0,0,0,0,0,0,0,0,0,0],"id":2,"left_children":[1,3,5,7,9,11,13,15,17,19,21,23,25,-1,-1,27,29,31,-1,33,35,37,39,41,43,-1,-1,-1,-1,45,-1,47,-1,49,51,53,55,57,59,61,63,65,67,69,71,-1,-1,-1,-1,-1,-1,-1,-1,-1,-1,-1,-1,-1,-1,-1,-1,-1,-1,-1,-1,-1,-1,-1,-1,-1,-1,-1,-1],"loss_changes":[7.452428E2,4.3571954E2,8.286328E1,4.916693E1,1.1687092E2,1.8448099E2,6.126709E-1,1.1439265E1,1.1585266E1,8.119018E1,2.3868416E1,7.448361E1,7.694504E0,0E0,0E0,3.0220385E0,9.251835E0,7.1189575E0,0E0,7.842584E1,1.7992918E1,3.0245558E1,4.139282E0,4.4996643E0,7.9507614E1,0E0,0E0,0E0,0E0,5.2911606E0,0E0,4.656189E0,0E0,2.9319817E1,3.299904E1,2.6333721E1,7.3218155E-1,5.5401314E1,1.9548302E0,2.1511993E0,4.0787387E0,9.11284E0,1.7818298E0,9.842123E1,9.476624E0,0E0,0E0,0E0,0E0,0E0,0E0,0E0,0E0,0E0,0E0,0E0,0E0,0E0,0E0,0E0,0E0,0E0,0E0,0E0,0E0,0E0,0E0,0E0,0E0,0E0,0E0,0E0,0E0],"parents":[2147483647,0,0,1,1,2,2,3,3,4,4,5,5,6,6,7,7,8,8,9,9,10,10,11,11,12,12,15,15,16,16,17,17,19,19,20,20,21,21,22,22,23,23,24,24,29,29,31,31,33,33,34,34,35,35,36,36,37,37,38,38,39,39,40,40,41,41,42,42,43,43,44,44],"right_children":[2,4,6,8,10,12,14,16,18,20,22,24,26,-1,-1,28,30,32,-1,34,36,38,40,42,44,-1,-1,-1,-1,46,-1,48,-1,50,52,54,56,58,60,62,64,66,68,70,72,-1,-1,-1,-1,-1,-1,-1,-1,-1,-1,-1,-1,-1,-1,-1,-1,-1,-1,-1,-1,-1,-1,-1,-1,-1,-1,-1,-1],"split_conditions":[-4.811649E-1,-6.9418764E-1,-1.6190346E-1,-2.6441646E-1,-1.2623926E-1,9.268908E-1,-4.493971E-1,-2.3935945E-1,-4.693209E-2,-1.6649419E-1,-1.3105236E0,-5.676295E-2,-1.7293923E-1,-5.312774E-2,-3.163828E-1,-1.9289175E-1,-1.4890473E-1,-8.167242E-2,-2.131517E-1,1.0186019E0,-1.5205242E-1,-1.9314311E-1,-4.1288948E-1,-1.2814006E-1,-1.4888561E-1,-1.9456613E-1,3.8564628E-1,1.3731635E-1,-3.028567E-1,-1.4891218E-1,-2.3207296E-1,-1.3105236E0,-2.024887E-1,-1.9314311E-1,3.243245E-1,-1.685153E-1,-1.9450915E-1,-1.488951E-1,3.1751652E0,-5.7942532E-2,-3.8513666E-1,-3.8347626E-1,-3.912152E-2,-7.842265E-2,1.1399142E0,-1.05205454E-1,5.4775965E-1,5.4935694E-1,3.8309595E-1,2.1685766E-1,-2.3903501E-1,6.428884E-1,-7.001324E-2,-3.3094987E-1,4.815319E-1,-6.182168E-2,-3.3776343E-1,3.4863153E-1,-2.9762435E-1,-3.00149E-1,-4.6131574E-2,-2.9210022E-1,4.78037E-2,3.1732935E-1,-1.7570254E-1,2.50991E-1,-2.811576E-1,-3.1196982E-1,-1.2188542E-1,1.2365334E-1,-2.7535E-1,-2.681378E-1,2.5469849E-2],"split_indices":[52,89,58,76,162,45,54,40,3,17,79,15,0,0,0,96,22,161,0,2,1,153,51,126,28,0,0,0,0,22,0,79,0,153,144,1,130,28,115,125,144,51,63,124,136,0,0,0,0,0,0,0,0,0,0,0,0,0,0,0,0,0,0,0,0,0,0,0,0,0,0,0,0],"split_type":[0,0,0,0,0,0,0,0,0,0,0,0,0,0,0,0,0,0,0,0,0,0,0,0,0,0,0,0,0,0,0,0,0,0,0,0,0,0,0,0,0,0,0,0,0,0,0,0,0,0,0,0,0,0,0,0,0,0,0,0,0,0,0,0,0,0,0,0,0,0,0,0,0],"sum_hessian":[2.205282E3,7.7769635E2,1.4275857E3,3.9373724E2,3.839591E2,8.869296E2,5.406561E2,1.968764E1,3.740496E2,1.4130296E2,2.4265614E2,8.328034E2,5.41262E1,1.2420297E0,5.394141E2,1.2548641E1,7.138997E0,3.7175955E2,2.290052E0,9.795301E1,4.3349957E1,8.459208E1,1.5806406E2,3.6446707E2,4.6833633E2,1.5643134E0,5.256189E1,1.005223E0,1.1543418E1,4.7716503E0,2.3673468E0,3.7051578E2,1.2437607E0,4.934811E1,4.8604904E1,1.2417726E1,3.0932232E1,4.703673E1,3.7555347E1,1.5349156E2,4.572489E0,1.0804278E1,3.5366278E2,2.5095892E2,2.1737741E2,1.0932221E0,3.6784282E0,2.1067858E1,3.4944794E2,2.7354233E1,2.1993876E1,4.2057777E1,6.5471253E0,6.028143E0,6.3895826E0,1.4075575E0,2.9524673E1,2.7393589E1,1.9643145E1,3.416558E1,3.3897657E0,1.5206133E2,1.4302397E0,1.3513749E0,3.2211137E0,3.5359812E0,7.268297E0,3.4744315E2,6.219649E0,1.6932736E2,8.163157E1,2.0716377E2,1.0213651E1],"tree_param":{"num_deleted":"0","num_feature":"165","num_nodes":"73","size_leaf_vector":"1"}},{"base_weights":[-2.9311383E-1,3.1654096E-1,-7.454915E-1,1.1311694E0,-2.019752E-1,-5.6289333E-1,-3.1158733E-1,1.1613541E0,-3.2561818E-1,2.9586515E-1,-5.938611E-1,-6.8597305E-1,1.1159425E0,-3.7253055E-1,1.1953373E0,1.1521871E0,-1.1084696E-1,-3.9160304E-2,-7.8059125E-1,-7.67153E-1,8.2030606E-1,-1.7928097E-1,3.547505E-1,2.9291874E-1,-3.0947825E-1,2.8115783E0,1.1672552E0,1.7563374E0,-2.735791E-3,-7.3189884E-1,4.361092E-1,4.357998E-1,-6.135832E-1,-9.680712E-1,-2.648932E-1,8.509642E-2,-8.189245E-1,1.9133762E0,-7.479215E-1,1.1899288E0,2.6526883E-1,-1.2776102E-1,3.5623336E-1,-2.4742042E-1,6.365855E-1,2.470128E-1,-3.1185263E-1,-2.4762115E-1,1.7066056E-2,-2.9770446E-1,2.053122E-1,3.7348482E-1,-4.2281352E-2,-2.7825388E-1,-3.8124382E-2,-2.9814935E-1,9.1124155E-2,3.958148E-1,-1.3448662E-1,4.5303926E-1,-1.04929246E-1,-3.0836606E-1,-1.9734587E-1,-1.7779666E-1,8.14982E-1,2.9195251E-2,-3.0168247E-1],"categories":[],"categories_nodes":[],"categories_segments":[],"categories_sizes":[],"default_left":[0,0,0,0,0,0,0,0,0,0,0,0,0,0,0,0,0,0,0,0,0,0,0,0,0,0,0,0,0,0,0,0,0,0,0,0,0,0,0,0,0,0,0,0,0,0,0,0,0,0,0,0,0,0,0,0,0,0,0,0,0,0,0,0,0,0,0],"id":3,"left_children":[1,3,5,7,9,11,-1,13,-1,15,17,19,21,23,25,27,29,31,33,35,37,-1,-1,-1,-1,39,41,43,45,47,49,51,53,55,57,59,61,63,65,-1,-1,-1,-1,-1,-1,-1,-1,-1,-1,-1,-1,-1,-1,-1,-1,-1,-1,-1,-1,-1,-1,-1,-1,-1,-1,-1,-1],"loss_changes":[4.980645E2,3.252979E2,5.4894165E1,2.129721E1,9.208708E1,1.3318304E2,0E0,1.5871277E1,0E0,7.2628334E1,2.7307884E1,7.371442E1,5.7424545E0,7.387545E0,9.869507E0,4.683822E1,4.8571484E1,1.8690294E1,1.8829918E1,2.5115265E1,5.4653015E1,0E0,0E0,0E0,0E0,5.9272003E0,9.721252E0,4.33378E1,2.1455345E1,4.98061E0,2.7687004E1,1.7697716E1,4.613326E0,5.03273E0,1.628408E1,2.1234243E1,1.7342163E1,3.9003563E1,3.0319953E0,0E0,0E0,0E0,0E0,0E0,0E0,0E0,0E0,0E0,0E0,0E0,0E0,0E0,0E0,0E0,0E0,0E0,0E0,0E0,0E0,0E0,0E0,0E0,0E0,0E0,0E0,0E0,0E0],"parents":[2147483647,0,0,1,1,2,2,3,3,4,4,5,5,7,7,9,9,10,10,11,11,12,12,13,13,14,14,15,15,16,16,17,17,18,18,19,19,20,20,25,25,26,26,27,27,28,28,29,29,30,30,31,31,32,32,33,33,34,34,35,35,36,36,37,37,38,38],"right_children":[2,4,6,8,10,12,-1,14,-1,16,18,20,22,24,26,28,30,32,34,36,38,-1,-1,-1,-1,40,42,44,46,48,50,52,54,56,58,60,62,64,66,-1,-1,-1,-1,-1,-1,-1,-1,-1,-1,-1,-1,-1,-1,-1,-1,-1,-1,-1,-1,-1,-1,-1,-1,-1,-1,-1,-1],"split_conditions":[-2.3927929E-1,-1.8871321E-1,-1.5678655E-1,1.2355002E0,-1.3105236E0,9.268908E-1,-3.1158733E-1,-1.6363731E-1,-3.2561818E-1,-7.4385536E-1,-1.065819E0,1.5262243E0,-1.7293923E-1,-4.6737325E-1,-5.9013054E-2,-1.1808349E-1,-2.9763144E-1,-1.6969992E-1,-2.3588663E-1,-1.2768818E-1,-1.0175809E-1,-1.7928097E-1,3.547505E-1,2.9291874E-1,-3.0947825E-1,-3.0007605E-2,-1.6093285E-1,-1.7078541E-1,-1.6092081E-1,-2.2719653E-1,-1.7984E-1,-1.5411662E0,-2.3494457E-1,-4.1174766E-1,-1.2970841E0,-1.8841621E-1,-5.680781E-2,8.296355E-1,-7.384574E-1,1.1899288E0,2.6526883E-1,-1.2776102E-1,3.5623336E-1,-2.4742042E-1,6.365855E-1,2.470128E-1,-3.1185263E-1,-2.4762115E-1,1.7066056E-2,-2.9770446E-1,2.053122E-1,3.7348482E-1,-4.2281352E-2,-2.7825388E-1,-3.8124382E-2,-2.9814935E-1,9.1124155E-2,3.958148E-1,-1.3448662E-1,4.5303926E-1,-1.04929246E-1,-3.0836606E-1,-1.9734587E-1,-1.7779666E-1,8.14982E-1,2.9195251E-2,-3.0168247E-1],"split_indices":[40,131,64,99,79,45,0,7,0,88,151,100,0,54,81,1,137,93,48,126,161,0,0,0,0,70,60,1,66,39,1,163,42,51,100,131,15,150,88,0,0,0,0,0,0,0,0,0,0,0,0,0,0,0,0,0,0,0,0,0,0,0,0,0,0,0,0],"split_type":[0,0,0,0,0,0,0,0,0,0,0,0,0,0,0,0,0,0,0,0,0,0,0,0,0,0,0,0,0,0,0,0,0,0,0,0,0,0,0,0,0,0,0,0,0,0,0,0,0,0,0,0,0,0,0,0,0,0,0,0,0,0,0,0,0,0,0],"sum_hessian":[1.8040724E3,7.68581E2,1.0354913E3,2.98474E2,4.7010696E2,6.398417E2,3.956497E2,2.9493372E2,3.54028E0,2.0716971E2,2.6293726E2,5.9668835E2,4.3153347E1,6.176713E0,2.88757E2,6.61209E1,1.410488E2,6.652568E1,1.9641159E2,5.666403E2,3.0048012E1,1.3152092E0,4.183814E1,1.8692896E0,4.307423E0,3.2386703E0,2.855183E2,4.3069912E1,2.3050991E1,6.589215E1,7.515665E1,3.654766E1,2.9978018E1,1.4340138E2,5.3010212E1,3.24135E1,5.342268E2,1.7576754E1,1.2471259E1,1.3636258E0,1.8750445E0,3.3215513E0,2.8219678E2,5.1881514E0,3.7881763E1,1.2943389E1,1.0107603E1,5.8867416E1,7.024736E0,1.0684339E1,6.4472305E1,1.4727174E1,2.1820488E1,1.7669655E1,1.2308361E1,1.4076877E2,2.632607E0,4.857151E0,4.815306E1,7.0004406E0,2.5413063E1,2.3022789E2,3.0399893E2,4.3298955E0,1.3246858E1,3.059178E0,9.412081E0],"tree_param":{"num_deleted":"0","num_feature":"165","num_nodes":"67","size_leaf_vector":"1"}},{"base_weights":[-2.6940724E-1,2.6121914E-1,-7.013967E-1,1.071918E0,-1.8067636E-1,-5.129822E-1,-3.0807728E-1,1.0988666E0,-7.974583E-1,2.852891E-1,-4.6765903E-1,-6.235377E-1,1.0443792E0,-2.5681323E-1,1.1346004E0,-2.9083157E-1,-4.506348E-2,5.2966976E-1,-9.132555E-1,-3.103122E-1,-3.0811766E-1,-7.070615E-1,5.0363517E-1,-1.6519545E-1,3.3411276E-1,-2.6364037E-1,3.218422E-1,-2.4744268E-1,1.1542209E0,-9.852524E-1,6.843709E-1,-9.891316E-1,1.0671654E-1,-1.6124551E-1,-9.336304E-1,-5.025942E-1,-9.8517805E-1,-7.097513E-1,1.2515723E0,1.3859162E-1,-1.9548006E-1,7.614944E-1,3.3705652E-1,-1.9380923E-2,-3.1742093E-1,2.688946E-1,-2.0564958E-1,-1.3510126E-2,-3.0746052E-1,-2.127512E-1,5.0066557E-2,1.3983452E-1,-2.9444334E-1,-2.8209123E-1,-8.30444E-2,-2.9859862E-1,6.796308E-2,3.205297E-1,-2.8557932E-1,6.384672E-1,-2.306793E-1],"categories":[],"categories_nodes":[],"categories_segments":[],"categories_sizes":[],"default_left":[0,0,0,0,0,0,0,0,0,0,0,0,0,0,0,0,0,0,0,0,0,0,0,0,0,0,0,0,0,0,0,0,0,0,0,0,0,0,0,0,0,0,0,0,0,0,0,0,0,0,0,0,0,0,0,0,0,0,0,0,0],"id":4,"left_children":[1,3,5,7,9,11,-1,13,15,17,19,21,23,25,27,-1,-1,29,31,33,-1,35,37,-1,-1,-1,-1,39,41,43,45,47,-1,49,51,53,55,57,59,-1,-1,-1,-1,-1,-1,-1,-1,-1,-1,-1,-1,-1,-1,-1,-1,-1,-1,-1,-1,-1,-1],"loss_changes":[3.3941702E2,2.3837769E2,4.9525024E1,1.26996765E1,5.7790794E1,8.998932E1,0E0,1.1519836E1,2.901442E-1,4.8800217E1,2.3200924E1,4.602739E1,4.4579353E0,6.539998E0,6.4143677E0,0E0,0E0,3.293468E1,3.0772266E0,1.9360092E1,0E0,2.5211685E1,3.1790892E1,0E0,0E0,0E0,0E0,1.4442215E0,6.6247253E0,8.1417274E-1,3.7048386E1,8.6387825E-1,0E0,3.080266E1,3.1576538E0,2.5688217E1,2.5685272E0,6.883793E0,3.9591038E1,0E0,0E0,0E0,0E0,0E0,0E0,0E0,0E0,0E0,0E0,0E0,0E0,0E0,0E0,0E0,0E0,0E0,0E0,0E0,0E0,0E0,0E0],"parents":[2147483647,0,0,1,1,2,2,3,3,4,4,5,5,7,7,8,8,9,9,10,10,11,11,12,12,13,13,14,14,17,17,18,18,19,19,21,21,22,22,27,27,28,28,29,29,30,30,31,31,33,33,34,34,35,35,36,36,37,37,38,38],"right_children":[2,4,6,8,10,12,-1,14,16,18,20,22,24,26,28,-1,-1,30,32,34,-1,36,38,-1,-1,-1,-1,40,42,44,46,48,-1,50,52,54,56,58,60,-1,-1,-1,-1,-1,-1,-1,-1,-1,-1,-1,-1,-1,-1,-1,-1,-1,-1,-1,-1,-1,-1],"split_conditions":[-2.3488669E-1,-1.8871321E-1,-1.5678655E-1,1.2355002E0,-1.2623926E-1,9.268908E-1,-3.0807728E-1,-1.6363731E-1,-1.694065E-1,9.27088E-1,-2.4024522E-2,1.5260614E0,-1.7293923E-1,2.9434993E0,-1.6960247E-1,-2.9083157E-1,-4.506348E-2,-1.8176843E-1,9.3403205E-2,-1.1533482E-1,-3.0811766E-1,-7.558422E-2,-9.087916E-2,-1.6519545E-1,3.3411276E-1,-2.6364037E-1,3.218422E-1,-2.3935945E-1,-1.071408E0,-5.7363007E-2,-1.2808871E-1,-1.6593292E-1,1.0671654E-1,-5.6489408E-2,-8.258073E-1,-5.6701403E-2,1.7929403E1,-1.4584E-1,-3.1397935E-2,1.3859162E-1,-1.9548006E-1,7.614944E-1,3.3705652E-1,-1.9380923E-2,-3.1742093E-1,2.688946E-1,-2.0564958E-1,-1.3510126E-2,-3.0746052E-1,-2.127512E-1,5.0066557E-2,1.3983452E-1,-2.9444334E-1,-2.8209123E-1,-8.30444E-2,-2.9859862E-1,6.796308E-2,3.205297E-1,-2.8557932E-1,6.384672E-1,-2.306793E-1],"split_indices":[42,131,64,99,162,45,0,7,0,136,4,100,0,1,1,0,0,1,93,18,0,124,125,0,0,0,0,40,99,15,0,10,0,15,104,15,107,1,125,0,0,0,0,0,0,0,0,0,0,0,0,0,0,0,0,0,0,0,0,0,0],"split_type":[0,0,0,0,0,0,0,0,0,0,0,0,0,0,0,0,0,0,0,0,0,0,0,0,0,0,0,0,0,0,0,0,0,0,0,0,0,0,0,0,0,0,0,0,0,0,0,0,0,0,0,0,0,0,0,0,0,0,0,0,0],"sum_hessian":[1.4789164E3,6.6386505E2,8.1505133E2,2.3369814E2,4.3016693E2,5.1787976E2,2.9717157E2,2.3078339E2,2.9147515E0,1.6395836E2,2.6620856E2,4.841127E2,3.376707E1,5.768029E0,2.2501537E2,1.9095705E0,1.005181E0,1.3665315E2,2.7305212E1,2.0898143E2,5.722714E1,4.5106165E2,3.305106E1,1.1173961E0,3.2649673E1,4.1607265E0,1.6073024E0,2.9872317E0,2.2202812E2,1.2164325E1,1.2448883E2,2.5972748E1,1.3324637E0,1.6966475E2,3.9316677E1,2.615678E2,1.8949382E2,1.26232605E1,2.0427797E1,1.0322614E0,1.9549702E0,3.0453072E0,2.1898282E2,1.0299233E0,1.1134401E1,1.0810816E2,1.6380665E1,1.0297166E0,2.4943031E1,6.3114166E1,1.0655059E2,1.0105954E0,3.830608E1,8.793227E1,1.7363556E2,1.8809671E2,1.3971069E0,1.1041797E0,1.151908E1,1.4209357E1,6.21844E0],"tree_param":{"num_deleted":"0","num_feature":"165","num_nodes":"61","size_leaf_vector":"1"}},{"base_weights":[-2.4392988E-1,5.602562E-1,-4.7847024E-1,9.713235E-1,-4.60798E-1,-3.1477344E-1,-1.0177741E0,-2.180123E-1,1.0381907E0,-7.798728E-1,4.842697E-1,-9.646037E-1,-1.2671849E-1,-3.0757532E-1,-3.0831116E-1,2.5128973E-1,-4.7773668E-1,1.0754067E0,-4.5808604E-1,2.441022E-1,-8.239811E-1,1.6706693E0,-8.437478E-1,2.392549E-1,-1.0054252E0,5.69983E-2,-7.467826E-1,1.8069299E-1,-2.262199E-1,-8.1673354E-1,1.7972372E-1,-6.072092E-1,1.0998178E0,1.3917075E-1,-2.7261445E-1,-8.676774E-1,2.3280601E-1,2.5611641E0,-5.500013E-1,-7.648835E-3,-2.785057E-1,1.1528798E0,-5.4272634E-1,-1.0114655E0,-1.0249176E-2,-8.744534E-1,1.8758777E-1,-4.6717045E-1,-9.694414E-1,4.3541707E-2,-2.9980427E-1,-2.5729057E-1,-5.6703934E-3,3.3450586E-1,-2.3163554E-1,1.9119084E-2,-2.8293815E-1,1.9561131E-1,1.1650727E0,-6.33033E-3,-2.1470094E-1,8.6349264E-2,4.263116E-1,-2.1866015E-1,2.2329437E-3,-6.885155E-2,-3.0490822E-1,1.4262114E-1,-2.8816E-1,9.345256E-2,-2.6280892E-1,1.7940765E-2,-2.8144488E-1,-2.9863915E-1,-4.5084045E-3],"categories":[],"categories_nodes":[],"categories_segments":[],"categories_sizes":[],"default_left":[0,0,0,0,0,0,0,0,0,0,0,0,0,0,0,0,0,0,0,0,0,0,0,0,0,0,0,0,0,0,0,0,0,0,0,0,0,0,0,0,0,0,0,0,0,0,0,0,0,0,0,0,0,0,0,0,0,0,0,0,0,0,0,0,0,0,0,0,0,0,0,0,0,0,0],"id":5,"left_children":[1,3,5,7,9,11,13,15,17,19,21,23,25,27,-1,-1,29,31,33,-1,35,37,39,41,43,45,47,-1,-1,49,-1,51,53,-1,-1,55,-1,57,59,-1,-1,61,63,65,-1,67,69,71,73,-1,-1,-1,-1,-1,-1,-1,-1,-1,-1,-1,-1,-1,-1,-1,-1,-1,-1,-1,-1,-1,-1,-1,-1,-1,-1],"loss_changes":[2.3288528E2,1.1752246E2,8.402127E1,1.6067642E1,2.472515E1,8.961816E1,1.2495728E0,3.5338426E0,1.1003998E1,4.9401627E0,3.449084E1,8.332809E0,6.505272E1,2.2776244E0,0E0,0E0,4.070093E0,8.245239E0,2.6162286E0,0E0,4.840641E0,2.400172E1,7.0816565E-1,5.0611486E0,9.009552E-1,5.382749E1,7.672386E0,0E0,0E0,1.5298505E0,0E0,4.6738124E-1,6.045685E0,0E0,0E0,4.1707077E0,0E0,1.850246E1,3.435682E-1,0E0,0E0,3.2939768E-1,4.1762912E-1,3.731842E-1,0E0,6.780449E0,5.138006E1,1.4894493E1,1.7663727E0,0E0,0E0,0E0,0E0,0E0,0E0,0E0,0E0,0E0,0E0,0E0,0E0,0E0,0E0,0E0,0E0,0E0,0E0,0E0,0E0,0E0,0E0,0E0,0E0,0E0,0E0],"parents":[2147483647,0,0,1,1,2,2,3,3,4,4,5,5,6,6,7,7,8,8,9,9,10,10,11,11,12,12,13,13,16,16,17,17,18,18,20,20,21,21,22,22,23,23,24,24,25,25,26,26,29,29,31,31,32,32,35,35,37,37,38,38,41,41,42,42,43,43,45,45,46,46,47,47,48,48],"right_children":[2,4,6,8,10,12,14,16,18,20,22,24,26,28,-1,-1,30,32,34,-1,36,38,40,42,44,46,48,-1,-1,50,-1,52,54,-1,-1,56,-1,58,60,-1,-1,62,64,66,-1,68,70,72,74,-1,-1,-1,-1,-1,-1,-1,-1,-1,-1,-1,-1,-1,-1,-1,-1,-1,-1,-1,-1,-1,-1,-1,-1,-1,-1],"split_conditions":[-6.9420856E-1,-4.6256068E-1,-1.6549833E-1,-3.9146155E-2,-8.2278825E-2,-3.9151076E-2,-1.4891092E-1,-2.003638E-1,-1.2808871E-1,-2.6544776E0,-8.268031E-2,-4.882697E-1,-6.82657E-2,-1.5842272E-1,-3.0831116E-1,2.5128973E-1,-3.4870142E-1,-1.730633E-1,-2.0597547E-1,2.441022E-1,-2.4668325E-2,-1.5564813E-1,-1.6944717E0,-1.2482724E-1,7.93812E-2,-1.7984E-1,-3.4552467E-1,1.8069299E-1,-2.262199E-1,-1.2940499E0,1.7972372E-1,-9.412465E-1,1.7302749E-1,1.3917075E-1,-2.7261445E-1,-2.3491138E-1,2.3280601E-1,-2.3358907E-1,-8.0538765E-2,-7.648835E-3,-2.785057E-1,-1.635781E-1,-4.8832038E-1,-2.5925106E-1,-1.0249176E-2,-1.2814006E-1,-3.7265304E-2,-1.5942909E-1,3.0026455E0,4.3541707E-2,-2.9980427E-1,-2.5729057E-1,-5.6703934E-3,3.3450586E-1,-2.3163554E-1,1.9119084E-2,-2.8293815E-1,1.9561131E-1,1.1650727E0,-6.33033E-3,-2.1470094E-1,8.6349264E-2,4.263116E-1,-2.1866015E-1,2.2329437E-3,-6.885155E-2,-3.0490822E-1,1.4262114E-1,-2.8816E-1,9.345256E-2,-2.6280892E-1,1.7940765E-2,-2.8144488E-1,-2.9863915E-1,-4.5084045E-3],"split_indices":[89,52,58,63,101,57,22,130,0,109,124,52,160,1,0,0,156,1,106,0,33,24,109,129,47,1,52,0,0,79,0,99,81,0,0,42,0,54,101,0,0,7,52,84,0,126,124,8,143,0,0,0,0,0,0,0,0,0,0,0,0,0,0,0,0,0,0,0,0,0,0,0,0,0,0],"split_type":[0,0,0,0,0,0,0,0,0,0,0,0,0,0,0,0,0,0,0,0,0,0,0,0,0,0,0,0,0,0,0,0,0,0,0,0,0,0,0,0,0,0,0,0,0,0,0,0,0,0,0,0,0,0,0,0,0,0,0,0,0,0,0,0,0,0,0,0,0,0,0,0,0,0,0],"sum_hessian":[1.2322974E3,2.7793436E2,9.5436304E2,1.981925E2,7.974183E1,7.333503E2,2.2101273E2,1.04293995E1,1.877631E2,5.9745342E1,1.999649E1,1.6366634E2,5.6968396E2,3.4884126E0,2.175243E2,1.6199722E0,8.809427E0,1.8348077E2,4.2823305E0,1.1392523E0,5.8606087E1,1.0425096E1,9.571396E0,5.208311E0,1.5845802E2,4.4017422E2,1.2950972E2,1.0334345E0,2.454978E0,6.883829E0,1.925598E0,2.2824237E0,1.8119836E2,1.3962141E0,2.8861165E0,5.749363E1,1.112457E0,7.3317246E0,3.093371E0,1.0188606E0,8.552535E0,2.183233E0,3.0250783E0,1.5743752E2,1.0205077E0,5.3423782E1,3.8675046E2,5.878562E1,7.0724106E1,1.131126E0,5.752703E0,1.2798345E0,1.0025892E0,1.8013982E2,1.05854E0,4.3199725E0,5.317366E1,3.6112847E0,3.72044E0,1.0067303E0,2.0866406E0,1.0072671E0,1.1759659E0,2.017639E0,1.0074394E0,1.2773117E0,1.561602E2,2.9314592E0,5.049232E1,3.47026E2,3.972444E1,2.8155634E1,3.0629988E1,6.880511E1,1.9190011E0],"tree_param":{"num_deleted":"0","num_feature":"165","num_nodes":"75","size_leaf_vector":"1"}},{"base_weights":[-2.176754E-1,1.2563492E-1,-6.7509675E-1,-2.2882913E-1,6.976603E-1,-4.7381112E-1,-1.0091059E0,-9.1134536E-1,6.9146333E-3,1.0463923E0,9.109137E-3,-6.1500263E-1,3.1526467E-1,-9.703276E-2,-3.0440775E-1,2.8295782E-1,-9.829469E-1,-3.9858457E-1,3.842816E-1,1.1267153E0,-5.850875E-1,3.4655797E-1,-6.618784E-1,-4.8423308E-1,-9.1182697E-1,7.8735095E-1,-2.0090413E-1,-1.0049229E-2,-3.0031246E-1,-5.2428377E-1,7.6761E-1,1.3453223E-1,1.4086076E0,-4.0610838E-1,1.1657579E0,-2.8295714E-1,2.8216773E-1,9.900588E-1,-1.7512481E-1,3.5355547E-1,-8.153729E-1,-3.6566246E-1,-9.684903E-1,6.6123866E-2,-9.466581E-1,4.062301E-1,3.3074997E-2,4.432399E-1,-1.6807318E-1,-1.2432373E-1,6.845583E-1,1.44614E-1,-1.5587348E-1,5.3865254E-1,-2.4803828E-1,-2.4133398E-1,1.2114669E-1,4.8932427E-1,2.9799327E-1,3.2896808E-1,-2.0717536E-1,1.02775425E-1,-1.8572496E-1,-2.1578763E-1,5.3341275E-1,-3.0472988E-1,-1.5798077E-2,5.5157978E-2,-1.6177623E-1,-2.9873693E-1,-3.9747003E-3,2.9313242E-1,-1.9394109E-1,-2.9055458E-1,8.573162E-2],"categories":[],"categories_nodes":[],"categories_segments":[],"categories_sizes":[],"default_left":[0,0,0,0,0,0,0,0,0,0,0,0,0,0,0,0,0,0,0,0,0,0,0,0,0,0,0,0,0,0,0,0,0,0,0,0,0,0,0,0,0,0,0,0,0,0,0,0,0,0,0,0,0,0,0,0,0,0,0,0,0,0,0,0,0,0,0,0,0,0,0,0,0,0,0],"id":6,"left_children":[1,3,5,7,9,11,13,15,17,19,21,23,-1,-1,-1,25,27,29,31,33,35,37,39,41,43,45,-1,-1,-1,47,49,51,53,55,57,-1,-1,59,61,63,65,67,69,71,73,-1,-1,-1,-1,-1,-1,-1,-1,-1,-1,-1,-1,-1,-1,-1,-1,-1,-1,-1,-1,-1,-1,-1,-1,-1,-1,-1,-1,-1,-1],"loss_changes":[1.6649945E2,1.2307598E2,3.0078766E1,6.0348755E1,5.574034E1,6.2103363E1,3.2307434E-1,8.512207E0,4.2960144E1,2.0854614E1,1.8131708E1,9.724968E0,0E0,0E0,0E0,3.5173318E0,1.5309982E0,2.024138E1,3.7009308E1,9.2838745E0,5.197467E0,1.8054453E1,4.46558E0,1.02079735E1,2.7525253E0,1.5883865E0,0E0,0E0,0E0,9.664593E0,2.524117E1,2.7075558E1,2.604512E1,1.7438792E0,9.920624E0,0E0,0E0,5.0527287E0,7.168542E0,7.7233467E0,3.551177E0,1.4348351E1,9.144974E-1,3.0014858E0,2.3325958E0,0E0,0E0,0E0,0E0,0E0,0E0,0E0,0E0,0E0,0E0,0E0,0E0,0E0,0E0,0E0,0E0,0E0,0E0,0E0,0E0,0E0,0E0,0E0,0E0,0E0,0E0,0E0,0E0,0E0,0E0],"parents":[2147483647,0,0,1,1,2,2,3,3,4,4,5,5,6,6,7,7,8,8,9,9,10,10,11,11,15,15,16,16,17,17,18,18,19,19,20,20,21,21,22,22,23,23,24,24,25,25,29,29,30,30,31,31,32,32,33,33,34,34,37,37,38,38,39,39,40,40,41,41,42,42,43,43,44,44],"right_children":[2,4,6,8,10,12,14,16,18,20,22,24,-1,-1,-1,26,28,30,32,34,36,38,40,42,44,46,-1,-1,-1,48,50,52,54,56,58,-1,-1,60,62,64,66,68,70,72,74,-1,-1,-1,-1,-1,-1,-1,-1,-1,-1,-1,-1,-1,-1,-1,-1,-1,-1,-1,-1,-1,-1,-1,-1,-1,-1,-1,-1,-1,-1],"split_conditions":[-1.5565364E-1,-3.915036E-2,-1.6549833E-1,-3.9151076E-2,-6.821341E-1,-1.6561584E-1,-2.541617E-1,-4.882697E-1,1.0186019E0,2.4694774E-1,-4.6264327E-1,-6.82657E-2,3.1526467E-1,-9.703276E-2,-3.0440775E-1,8.42379E-1,-6.117692E-1,-3.155395E-2,4.662465E-1,-1.7078541E-1,-4.4593886E-2,-1.7255959E-1,-4.5702225E-1,-5.22248E-2,-2.8852115E0,-1.4990395E-1,-2.0090413E-1,-1.0049229E-2,-3.0031246E-1,-1.4865566E0,-1.6562782E-1,-3.6243343E-1,-6.82657E-2,-1.5105928E-1,-1.3938817E-1,-2.8295714E-1,2.8216773E-1,1.2355002E0,-1.4584E-1,-1.7545249E-1,1.0642046E0,-1.556439E-1,-4.7466934E-2,-1.1032972E-1,2.3175352E0,4.062301E-1,3.3074997E-2,4.432399E-1,-1.6807318E-1,-1.2432373E-1,6.845583E-1,1.44614E-1,-1.5587348E-1,5.3865254E-1,-2.4803828E-1,-2.4133398E-1,1.2114669E-1,4.8932427E-1,2.9799327E-1,3.2896808E-1,-2.0717536E-1,1.02775425E-1,-1.8572496E-1,-2.1578763E-1,5.3341275E-1,-3.0472988E-1,-1.5798077E-2,5.5157978E-2,-1.6177623E-1,-2.9873693E-1,-3.9747003E-3,2.9313242E-1,-1.9394109E-1,-2.9055458E-1,8.573162E-2],"split_indices":[30,57,58,57,88,58,76,52,2,157,54,160,0,0,0,136,154,101,52,1,141,17,142,126,121,1,0,0,0,102,10,52,160,141,141,0,0,99,1,1,133,30,47,54,90,0,0,0,0,0,0,0,0,0,0,0,0,0,0,0,0,0,0,0,0,0,0,0,0,0,0,0,0,0,0],"split_type":[0,0,0,0,0,0,0,0,0,0,0,0,0,0,0,0,0,0,0,0,0,0,0,0,0,0,0,0,0,0,0,0,0,0,0,0,0,0,0,0,0,0,0,0,0,0,0,0,0,0,0,0,0,0,0,0,0,0,0,0,0,0,0,0,0,0,0,0,0,0,0,0,0,0,0],"sum_hessian":[1.0587129E3,6.0520856E2,4.5350433E2,3.7403323E2,2.311753E2,2.8448328E2,1.6902104E2,9.528935E1,2.7874387E2,1.5310977E2,7.806552E1,2.6091806E2,2.356522E1,1.8419756E0,1.6717908E2,5.2227516E0,9.0066605E1,1.3433652E2,1.4440736E2,1.4622026E2,6.8895044E0,5.22645E1,2.5801023E1,1.8294902E2,7.796904E1,3.528188E0,1.6945639E0,1.7377168E0,8.832889E1,1.2176267E2,1.2573848E1,1.1700962E2,2.7397743E1,3.3983567E0,1.4282191E2,5.889002E0,1.0005025E0,2.299819E1,2.926631E1,3.2168386E0,2.2584185E1,1.4837454E2,3.4574482E1,2.6505754E0,7.531847E1,1.3763233E0,2.1518645E0,1.4413714E0,1.203213E2,7.4694943E0,5.1043534E0,7.658484E1,4.042478E1,2.3523167E1,3.8745778E0,2.282536E0,1.1158206E0,3.6330627E1,1.0649128E2,2.1954481E1,1.0437086E0,1.361634E1,1.5649971E1,2.1172733E0,1.0995654E0,1.7622349E1,4.9618354E0,3.560477E1,1.12769775E2,3.357258E1,1.0019068E0,1.0004263E0,1.650149E0,7.421638E1,1.102088E0],"tree_param":{"num_deleted":"0","num_feature":"165","num_nodes":"75","size_leaf_vector":"1"}},{"base_weights":[-1.9368777E-1,5.8831174E-2,-6.9210213E-1,-8.7756073E-1,2.1657516E-1,-4.8684582E-1,-3.0145538E-1,1.9298068E-1,-9.5829445E-1,6.4037865E-1,-4.1005705E-2,-6.528212E-1,9.515979E-1,5.864364E-1,-2.0115246E-1,-1.8171343E-1,-9.779288E-1,-7.462049E-1,7.507552E-1,-3.715109E-1,3.0759972E-1,-5.234055E-1,-9.4532585E-1,3.041504E-1,-3.0549183E-2,9.3681705E-1,-1.2115472E-1,9.908334E-2,-1.6862516E-1,-3.0167606E-1,-5.4885584E-1,1.9321881E-1,-9.774977E-1,8.2929057E-1,-7.936203E-1,1.0707482E-1,-6.5199125E-1,5.819903E-1,-4.3056527E-1,-1.8335019E-1,-6.9430375E-1,-1.0802238E-2,-9.6409476E-1,4.1220106E-2,3.6034828E-1,1.4587283E-1,-2.4116482E-1,-2.0329662E-1,3.6611703E-1,-8.022563E-2,-3.161114E-1,-8.9735035E-3,2.781983E-1,-2.6353076E-1,-1.49021875E-2,-5.7284996E-2,9.378195E-1,-2.7309942E-1,-9.950398E-2,-1.4512473E-1,2.1795477E-1,-1.5691677E-1,3.6465862E-1,-2.5097546E-1,5.852398E-2,-9.4740376E-2,-2.5968537E-1,-2.949025E-1,-1.0526988E-2],"categories":[],"categories_nodes":[],"categories_segments":[],"categories_sizes":[],"default_left":[0,0,0,0,0,0,0,0,0,0,0,0,0,0,0,0,0,0,0,0,0,0,0,0,0,0,0,0,0,0,0,0,0,0,0,0,0,0,0,0,0,0,0,0,0,0,0,0,0,0,0,0,0,0,0,0,0,0,0,0,0,0,0,0,0,0,0,0,0],"id":7,"left_children":[1,3,5,7,9,11,-1,13,15,17,19,21,23,25,-1,27,29,31,33,35,37,39,41,-1,-1,43,-1,-1,-1,-1,45,47,49,51,53,55,57,59,61,63,65,-1,67,-1,-1,-1,-1,-1,-1,-1,-1,-1,-1,-1,-1,-1,-1,-1,-1,-1,-1,-1,-1,-1,-1,-1,-1,-1,-1],"loss_changes":[1.1408954E2,8.9165665E1,1.9076843E1,7.7078934E0,5.639005E1,4.5019173E1,0E0,2.7497685E0,1.0589828E0,3.0441559E1,3.7222996E1,5.8390045E0,1.3911724E0,2.216783E0,0E0,8.1433696E-1,3.841324E-1,3.425848E0,2.265329E1,2.2323788E1,3.2109947E1,6.7440414E0,8.2001114E-1,0E0,0E0,7.256694E-1,0E0,0E0,0E0,0E0,2.2329924E0,4.2067437E0,3.7403393E-1,1.4605194E1,5.4233456E-1,5.6486324E1,8.359203E0,1.8079136E1,7.212883E0,1.0275211E1,4.8058853E0,0E0,8.2699203E-1,0E0,0E0,0E0,0E0,0E0,0E0,0E0,0E0,0E0,0E0,0E0,0E0,0E0,0E0,0E0,0E0,0E0,0E0,0E0,0E0,0E0,0E0,0E0,0E0,0E0,0E0],"parents":[2147483647,0,0,1,1,2,2,3,3,4,4,5,5,7,7,8,8,9,9,10,10,11,11,12,12,13,13,15,15,16,16,17,17,18,18,19,19,20,20,21,21,22,22,25,25,30,30,31,31,32,32,33,33,34,34,35,35,36,36,37,37,38,38,39,39,40,40,42,42],"right_children":[2,4,6,8,10,12,-1,14,16,18,20,22,24,26,-1,28,30,32,34,36,38,40,42,-1,-1,44,-1,-1,-1,-1,46,48,50,52,54,56,58,60,62,64,66,-1,68,-1,-1,-1,-1,-1,-1,-1,-1,-1,-1,-1,-1,-1,-1,-1,-1,-1,-1,-1,-1,-1,-1,-1,-1,-1,-1],"split_conditions":[-1.4888561E-1,-3.9151065E-2,-1.5678655E-1,-4.882697E-1,-6.939212E-1,8.309147E-1,-3.0145538E-1,-3.061345E-2,-6.117692E-1,-1.6960247E-1,1.0186019E0,-6.82657E-2,1.8118511E0,-1.4556709E-1,-2.0115246E-1,-3.6237665E-2,-5.702737E-2,-1.3709494E0,-3.2040502E-3,-6.406386E-1,3.1013766E-1,-3.9151E-2,-1.6364521E-1,3.041504E-1,-3.0549183E-2,-2.953639E-1,-1.2115472E-1,9.908334E-2,-1.6862516E-1,-3.0167606E-1,-5.820766E-1,-1.8393192E-1,-2.4322645E-1,-2.1444842E-1,1.0490266E0,4.8038848E-2,4.6360922E-1,-3.604519E-1,1.2819804E0,-1.574061E-1,-1.4123248E-1,-1.0802238E-2,-3.8292788E-2,4.1220106E-2,3.6034828E-1,1.4587283E-1,-2.4116482E-1,-2.0329662E-1,3.6611703E-1,-8.022563E-2,-3.161114E-1,-8.9735035E-3,2.781983E-1,-2.6353076E-1,-1.49021875E-2,-5.7284996E-2,9.378195E-1,-2.7309942E-1,-9.950398E-2,-1.4512473E-1,2.1795477E-1,-1.5691677E-1,3.6465862E-1,-2.5097546E-1,5.852398E-2,-9.4740376E-2,-2.5968537E-1,-2.949025E-1,-1.0526988E-2],"split_indices":[28,57,64,52,89,82,0,134,154,1,2,160,88,106,0,111,15,19,124,100,142,57,7,0,0,137,0,0,0,0,156,108,46,132,156,1,2,99,132,141,1,0,63,0,0,0,0,0,0,0,0,0,0,0,0,0,0,0,0,0,0,0,0,0,0,0,0,0,0],"split_type":[0,0,0,0,0,0,0,0,0,0,0,0,0,0,0,0,0,0,0,0,0,0,0,0,0,0,0,0,0,0,0,0,0,0,0,0,0,0,0,0,0,0,0,0,0,0,0,0,0,0,0,0,0,0,0,0,0,0,0,0,0,0,0,0,0,0,0,0,0],"sum_hessian":[9.05163E2,6.013661E2,3.037969E2,8.604239E1,5.153237E2,1.8496294E2,1.1883396E2,5.9362645E0,8.0106125E1,1.9424385E2,3.2107986E2,1.6631839E2,1.8644548E1,4.2984796E0,1.6377848E0,2.2282672E0,7.787786E1,1.3897588E1,1.8034627E2,1.6478505E2,1.5629482E2,1.1723732E2,4.908107E1,1.7639963E1,1.0045848E0,3.2149618E0,1.0835181E0,1.0059369E0,1.2223302E0,7.189959E1,5.9782715E0,2.7782006E0,1.1119387E1,1.7205963E2,8.286638E0,6.1117702E1,1.0366734E2,1.14095E2,4.219981E1,3.9905586E1,7.733173E1,1.0515966E0,4.8029472E1,1.1765802E0,2.0383816E0,1.0025412E0,4.97573E0,1.6876328E0,1.0905678E0,1.5147173E0,9.60467E0,1.769291E1,1.5436671E2,7.276306E0,1.0103325E0,5.6479027E1,4.638674E0,5.6365204E1,4.7302135E1,1.334453E1,1.0075047E2,4.060078E1,1.5990288E0,1.4193876E1,2.5711712E1,2.4981289E1,5.235044E1,4.7014183E1,1.0152886E0],"tree_param":{"num_deleted":"0","num_feature":"165","num_nodes":"69","size_leaf_vector":"1"}},{"base_weights":[-1.7211401E-1,-5.1201917E-2,-9.9849814E-1,-1.944094E-1,6.908941E-1,-8.148586E-3,-3.0236608E-1,-8.8143563E-1,-8.28304E-2,1.018329E0,1.9667357E-1,1.4784996E-1,-9.4939417E-1,-1.876258E-2,-3.0525213E-1,3.0929157E-1,6.908745E-2,-2.6952055E-1,1.0256115E0,5.6217486E-1,-1.8959545E-1,-2.582598E-1,-9.692927E-1,7.25925E-2,-7.1495104E-1,7.0412016E-1,-7.065178E-1,-3.806565E-2,1.1167189E0,2.991185E-1,-2.2096086E-2,9.372103E-2,-1.832972E-1,-2.9464674E-1,-1.3069877E-2,-1.9237675E-2,2.2767727E-1,1.9415925E-1,-2.3394132E-1,3.5681564E-1,-1.8858404E-1,1.0544786E-1,-2.898443E-1,5.672361E-1,2.8043622E-1],"categories":[],"categories_nodes":[],"categories_segments":[],"categories_sizes":[],"default_left":[0,0,0,0,0,0,0,0,0,0,0,0,0,0,0,0,0,0,0,0,0,0,0,0,0,0,0,0,0,0,0,0,0,0,0,0,0,0,0,0,0,0,0,0,0],"id":8,"left_children":[1,3,5,7,9,-1,-1,11,13,15,17,19,21,23,-1,-1,-1,25,27,29,-1,31,33,35,37,39,41,-1,43,-1,-1,-1,-1,-1,-1,-1,-1,-1,-1,-1,-1,-1,-1,-1,-1],"loss_changes":[7.959451E1,7.414427E1,8.99971E-1,4.4736305E1,1.8065132E1,0E0,0E0,5.845829E0,3.0160072E1,4.365921E-1,1.8137688E1,2.2671351E0,8.0378723E-1,3.0113312E1,0E0,0E0,0E0,1.3421019E1,1.9104519E0,1.288256E0,0E0,8.970582E-1,8.400574E-1,3.9340714E1,5.356388E0,7.1569896E0,6.235506E0,0E0,4.4534874E-1,0E0,0E0,0E0,0E0,0E0,0E0,0E0,0E0,0E0,0E0,0E0,0E0,0E0,0E0,0E0,0E0],"parents":[2147483647,0,0,1,1,2,2,3,3,4,4,7,7,8,8,9,9,10,10,11,11,12,12,13,13,17,17,18,18,19,19,21,21,22,22,23,23,24,24,25,25,26,26,28,28],"right_children":[2,4,6,8,10,-1,-1,12,14,16,18,20,22,24,-1,-1,-1,26,28,30,-1,32,34,36,38,40,42,-1,44,-1,-1,-1,-1,-1,-1,-1,-1,-1,-1,-1,-1,-1,-1,-1,-1],"split_conditions":[-1.5678655E-1,-9.517863E-2,-1.4890748E-1,-3.9151076E-2,-4.8697376E-1,-8.148586E-3,-3.0236608E-1,-4.882697E-1,-2.4024522E-2,1.2229186E0,-1.5437783E-1,8.42379E-1,-6.117692E-1,-7.558422E-2,-3.0525213E-1,3.0929157E-1,6.908745E-2,-7.4172133E-1,-1.5566102E-1,-1.2482724E-1,-1.8959545E-1,-2.3911893E-1,8.059886E-3,-1.1797284E-1,-4.8778033E-1,-2.3902094E-1,-4.5370683E-1,-3.806565E-2,-6.426567E-1,2.991185E-1,-2.2096086E-2,9.372103E-2,-1.832972E-1,-2.9464674E-1,-1.3069877E-2,-1.9237675E-2,2.2767727E-1,1.9415925E-1,-2.3394132E-1,3.5681564E-1,-1.8858404E-1,1.0544786E-1,-2.898443E-1,5.672361E-1,2.8043622E-1],"split_indices":[64,75,28,57,52,0,0,52,4,135,60,136,154,124,0,0,0,88,24,129,0,40,41,126,52,40,142,0,89,0,0,0,0,0,0,0,0,0,0,0,0,0,0,0,0],"split_type":[0,0,0,0,0,0,0,0,0,0,0,0,0,0,0,0,0,0,0,0,0,0,0,0,0,0,0,0,0,0,0,0,0,0,0,0,0,0,0,0,0,0,0,0,0],"sum_hessian":[7.9609546E2,6.954089E2,1.0068654E2,5.835376E2,1.1187132E2,1.0011654E0,9.968538E1,8.0566315E1,5.0297125E2,6.665202E1,4.52193E1,4.917116E0,7.56492E1,4.716611E2,3.1310143E1,6.5296165E1,1.3558583E0,2.9374157E1,1.5845144E1,3.3933468E0,1.5237691E0,2.5082762E0,7.314092E1,4.1774023E2,5.392088E1,8.910368E0,2.0463789E1,1.1320565E0,1.4713088E1,1.6777136E0,1.7156332E0,1.001819E0,1.5064573E0,7.207843E1,1.062493E0,3.4910474E2,6.8635506E1,2.0424657E0,5.187841E1,6.6108375E0,2.2995305E0,3.9624965E0,1.6501291E1,1.0124674E0,1.3700621E1],"tree_param":{"num_deleted":"0","num_feature":"165","num_nodes":"45","size_leaf_vector":"1"}},{"base_weights":[-1.4397207E-1,4.3211125E-2,-6.05188E-1,-6.9647324E-1,1.5617646E-1,-4.172279E-1,-2.9771292E-1,1.520451E-1,-8.9921224E-1,-8.107076E-1,2.321173E-1,-5.3586274E-1,8.7330884E-1,7.44549E-1,-4.8675135E-1,-9.579603E-1,1.5804629E-1,1.6768351E-1,-8.8433826E-1,6.227003E-1,-1.07404895E-1,-2.5681812E-1,-7.0138013E-1,6.8850177E-3,2.843026E-1,1.0429094E0,-9.6009575E-2,1.0020378E-1,-7.3252213E-1,-9.979626E-1,6.616436E-2,2.8196943E-1,-1.8364172E-1,-9.563559E-1,3.9240673E-2,8.564479E-1,-1.6176897E-1,1.6156106E0,-2.0986412E-1,-7.430246E-1,9.8436706E-2,-7.7463716E-1,3.2231477E-1,3.7243858E-1,2.4934683E-2,-7.192044E-3,-2.6915166E-1,-3.0536786E-1,-3.3072485E-3,-2.9668108E-1,-8.2244305E-3,-1.7384562E-1,2.8462848E-1,-2.3780604E-1,9.560199E-2,-1.811891E-1,5.83205E-1,-1.1494398E-1,1.4902267E-1,-2.6228732E-1,1.8729801E-1,-4.803531E-2,6.011731E-1,-3.623146E-2,-2.6805806E-1,3.185357E-1,-2.2308947E-1],"categories":[],"categories_nodes":[],"categories_segments":[],"categories_sizes":[],"default_left":[0,0,0,0,0,0,0,0,0,0,0,0,0,0,0,0,0,0,0,0,0,0,0,0,0,0,0,0,0,0,0,0,0,0,0,0,0,0,0,0,0,0,0,0,0,0,0,0,0,0,0,0,0,0,0,0,0,0,0,0,0,0,0,0,0,0,0],"id":9,"left_children":[1,3,5,7,9,11,-1,13,15,17,19,21,23,25,27,29,31,-1,33,35,37,39,41,-1,-1,43,-1,-1,45,47,-1,-1,-1,49,-1,51,53,55,57,59,61,63,65,-1,-1,-1,-1,-1,-1,-1,-1,-1,-1,-1,-1,-1,-1,-1,-1,-1,-1,-1,-1,-1,-1,-1,-1],"loss_changes":[6.174381E1,4.267726E1,1.4610146E1,1.1779232E1,3.2698715E1,2.201E1,0E0,5.6261935E0,3.5533142E0,3.7684212E0,5.4610077E1,5.8000183E0,7.513838E-1,2.7510529E0,1.7166059E0,2.6729164E0,2.828422E0,0E0,2.4058304E0,3.523787E1,3.933392E1,8.672221E0,6.301098E0,0E0,0E0,1.0743895E0,0E0,0E0,6.701386E-1,9.8215485E-1,0E0,0E0,0E0,8.581791E-1,0E0,2.011927E1,1.3827333E1,1.0294888E1,2.5826443E1,4.3393526E0,1.4927947E1,5.7689323E0,5.5939255E0,0E0,0E0,0E0,0E0,0E0,0E0,0E0,0E0,0E0,0E0,0E0,0E0,0E0,0E0,0E0,0E0,0E0,0E0,0E0,0E0,0E0,0E0,0E0,0E0],"parents":[2147483647,0,0,1,1,2,2,3,3,4,4,5,5,7,7,8,8,9,9,10,10,11,11,12,12,13,13,14,14,15,15,16,16,18,18,19,19,20,20,21,21,22,22,25,25,28,28,29,29,33,33,35,35,36,36,37,37,38,38,39,39,40,40,41,41,42,42],"right_children":[2,4,6,8,10,12,-1,14,16,18,20,22,24,26,28,30,32,-1,34,36,38,40,42,-1,-1,44,-1,-1,46,48,-1,-1,-1,50,-1,52,54,56,58,60,62,64,66,-1,-1,-1,-1,-1,-1,-1,-1,-1,-1,-1,-1,-1,-1,-1,-1,-1,-1,-1,-1,-1,-1,-1,-1],"split_conditions":[-1.4888561E-1,-5.714931E-2,-1.5678655E-1,-4.6747425E-1,-1.7984E-1,9.268908E-1,-2.9771292E-1,-1.6938058E-1,-1.5055896E-2,-1.4370672E-1,-9.6285716E-2,-1.6469447E-1,-1.7224187E-1,7.107587E-1,-2.1219368E0,-3.912878E-2,-4.382329E-1,1.6768351E-1,1.0254109E0,-4.302632E-1,-1.1682268E0,-1.574061E-1,1.4043401E0,6.8850177E-3,2.843026E-1,-1.9952433E-1,-9.6009575E-2,1.0020378E-1,-7.405343E-1,5.113364E0,6.616436E-2,2.8196943E-1,-1.8364172E-1,1.4321338E-1,3.9240673E-2,-2.9389074E-1,-4.1106007E-1,1.6047543E-2,-9.685171E-2,-3.1268504E-2,2.7511494E0,-1.9963893E-1,9.242275E-2,3.7243858E-1,2.4934683E-2,-7.192044E-3,-2.6915166E-1,-3.0536786E-1,-3.3072485E-3,-2.9668108E-1,-8.2244305E-3,-1.7384562E-1,2.8462848E-1,-2.3780604E-1,9.560199E-2,-1.811891E-1,5.83205E-1,-1.1494398E-1,1.4902267E-1,-2.6228732E-1,1.8729801E-1,-4.803531E-2,6.011731E-1,-3.623146E-2,-2.6805806E-1,3.185357E-1,-2.2308947E-1],"split_indices":[28,15,64,54,1,45,0,8,72,124,1,94,0,136,73,57,142,0,150,52,138,141,135,0,0,130,0,0,88,137,0,0,0,93,0,87,143,1,47,34,113,106,107,0,0,0,0,0,0,0,0,0,0,0,0,0,0,0,0,0,0,0,0,0,0,0,0],"split_type":[0,0,0,0,0,0,0,0,0,0,0,0,0,0,0,0,0,0,0,0,0,0,0,0,0,0,0,0,0,0,0,0,0,0,0,0,0,0,0,0,0,0,0,0,0,0,0,0,0,0,0,0,0,0,0,0,0,0,0,0,0,0,0,0,0,0,0],"sum_hessian":[7.1388855E2,5.0844418E2,2.0544435E2,6.667809E1,4.417661E2,1.397032E2,6.574115E1,1.2907348E1,5.377075E1,3.14658E1,4.103003E2,1.2847746E2,1.122574E1,6.610422E0,6.296925E0,5.1029163E1,2.7415853E0,1.2690039E0,3.0196796E1,1.9041486E2,2.1988544E2,4.878417E1,7.969329E1,1.0080122E0,1.0217728E1,5.1792407E0,1.4311814E0,1.3683177E0,4.9286075E0,4.95021E1,1.5270613E0,1.2511402E0,1.4904451E0,2.8250513E1,1.9462838E0,1.4663145E2,4.3783398E1,1.15127E1,2.0837274E2,2.0135258E1,2.8648909E1,7.459823E1,5.0950613E0,4.0483017E0,1.1309394E0,1.1453507E0,3.7832568E0,4.8491497E1,1.010603E0,2.7230854E1,1.0196582E0,8.538483E0,1.3809297E2,1.8646658E1,2.5136742E1,1.3757099E0,1.0136991E1,1.677041E2,4.0668636E1,1.8700588E1,1.4346702E0,2.6032516E1,2.6163921E0,1.1787197E1,6.281103E1,3.010508E0,2.0845532E0],"tree_param":{"num_deleted":"0","num_feature":"165","num_nodes":"67","size_leaf_vector":"1"}},{"base_weights":[-1.2520278E-1,1.2571312E-3,-7.155661E-1,8.9240685E-2,-8.290021E-1,-7.9401237E-1,-1.1928105E-1,1.9686387E-1,-5.366619E-1,-9.02659E-1,5.4668736E-1,-5.2516073E-1,-9.309332E-1,3.9611122E-1,-2.552338E-1,-6.810157E-2,4.321784E-1,-3.2745752E-1,-8.9993083E-1,-9.5229864E-1,-1.8391056E-2,-1.6649605E-1,4.4657516E-1,1.634344E-2,-7.373324E-1,-9.598268E-1,2.6276791E-2,1.192705E0,-6.0555404E-1,3.363179E-1,-3.2473764E-1,-3.749584E-1,5.6288224E-1,-5.721091E-1,8.9311665E-1,-9.362971E-1,-8.349214E-3,-1.9714923E-1,-2.9622227E-1,2.358342E-1,-1.895614E-1,-2.5325638E-1,6.957786E-1,-8.2493746E-1,9.552747E-2,-9.7489405E-1,-1.6104167E-2,4.969765E-2,1.6836268E0,-2.6912898E-1,4.810546E-2,1.5782063E-1,-2.1315089E-1,-1.2801482E-1,7.888888E-2,-1.7232941E-1,2.0773055E-1,2.020565E-1,-1.5863504E-1,-2.1959042E-2,-2.6840857E-1,5.3147185E-1,-2.2431722E-1,-2.9256257E-1,-1.9767717E-2,1.1477023E-1,-1.854049E-1,-6.881002E-2,5.237783E-1,-2.9939365E-1,-3.3843294E-2,-1.4771622E-2,-2.9686847E-1,6.8707585E-1,1.5354545E-1],"categories":[],"categories_nodes":[],"categories_segments":[],"categories_sizes":[],"default_left":[0,0,0,0,0,0,0,0,0,0,0,0,0,0,0,0,0,0,0,0,0,0,0,0,0,0,0,0,0,0,0,0,0,0,0,0,0,0,0,0,0,0,0,0,0,0,0,0,0,0,0,0,0,0,0,0,0,0,0,0,0,0,0,0,0,0,0,0,0,0,0,0,0,0,0],"id":10,"left_children":[1,3,5,7,9,11,13,15,17,19,21,23,25,27,-1,29,31,33,35,37,39,-1,-1,41,43,45,-1,47,49,51,53,55,57,59,61,63,-1,65,-1,-1,-1,-1,67,69,-1,71,-1,-1,73,-1,-1,-1,-1,-1,-1,-1,-1,-1,-1,-1,-1,-1,-1,-1,-1,-1,-1,-1,-1,-1,-1,-1,-1,-1,-1],"loss_changes":[4.7943047E1,3.878073E1,5.2046013E0,3.2439537E1,5.647896E0,3.190117E0,5.746415E0,2.5612331E1,5.07794E0,2.118412E0,4.1549306E0,4.150218E0,1.994709E0,7.9831905E0,0E0,2.0229622E1,2.3151157E1,1.4376312E1,7.751484E-1,1.0263443E0,2.2765102E0,0E0,0E0,7.087747E0,2.6581612E0,8.107681E-1,0E0,2.446556E0,1.1920612E0,1.5420717E1,7.2506676E0,6.978042E0,2.300803E1,6.257739E0,1.3062489E1,7.5606537E-1,0E0,1.040487E0,0E0,0E0,0E0,0E0,6.968919E0,2.868782E0,0E0,7.947464E-1,0E0,0E0,1.3500509E0,0E0,0E0,0E0,0E0,0E0,0E0,0E0,0E0,0E0,0E0,0E0,0E0,0E0,0E0,0E0,0E0,0E0,0E0,0E0,0E0,0E0,0E0,0E0,0E0,0E0,0E0],"parents":[2147483647,0,0,1,1,2,2,3,3,4,4,5,5,6,6,7,7,8,8,9,9,10,10,11,11,12,12,13,13,15,15,16,16,17,17,18,18,19,19,20,20,23,23,24,24,25,25,27,27,28,28,29,29,30,30,31,31,32,32,33,33,34,34,35,35,37,37,42,42,43,43,45,45,48,48],"right_children":[2,4,6,8,10,12,14,16,18,20,22,24,26,28,-1,30,32,34,36,38,40,-1,-1,42,44,46,-1,48,50,52,54,56,58,60,62,64,-1,66,-1,-1,-1,-1,68,70,-1,72,-1,-1,74,-1,-1,-1,-1,-1,-1,-1,-1,-1,-1,-1,-1,-1,-1,-1,-1,-1,-1,-1,-1,-1,-1,-1,-1,-1,-1],"split_conditions":[5.2946454E-1,-3.7265304E-2,3.0499585E0,-6.82657E-2,-2.5380722E-1,-2.4312052E-1,-1.5804954E-1,-5.253096E-1,-2.7747044E-1,2.6983014E-1,-1.7865571E-1,-4.132206E-1,7.216943E-1,-1.264291E-1,-2.552338E-1,-1.2623926E-1,-1.24405324E-1,-2.049974E-1,1.474085E-1,-3.2040502E-3,2.502206E-1,-1.6649605E-1,4.4657516E-1,-6.906618E-1,-8.014213E-2,3.951507E0,2.6276791E-2,-2.9901093E-2,1.0186019E0,8.2133347E-1,-1.15261585E-1,-2.4809429E-1,-1.2808871E-1,-1.5411662E0,-2.3926146E-1,3.825646E0,-8.349214E-3,-1.6311456E-1,-2.9622227E-1,2.358342E-1,-1.895614E-1,-2.5325638E-1,1.1979997E0,-9.073018E-2,9.552747E-2,-4.1402352E-1,-1.6104167E-2,4.969765E-2,-1.9676378E-1,-2.6912898E-1,4.810546E-2,1.5782063E-1,-2.1315089E-1,-1.2801482E-1,7.888888E-2,-1.7232941E-1,2.0773055E-1,2.020565E-1,-1.5863504E-1,-2.1959042E-2,-2.6840857E-1,5.3147185E-1,-2.2431722E-1,-2.9256257E-1,-1.9767717E-2,1.1477023E-1,-1.854049E-1,-6.881002E-2,5.237783E-1,-2.9939365E-1,-3.3843294E-2,-1.4771622E-2,-2.9686847E-1,6.8707585E-1,1.5354545E-1],"split_indices":[88,124,87,160,83,46,58,156,52,131,130,144,101,141,0,162,129,53,17,124,130,0,0,138,23,155,0,75,2,136,126,77,0,163,40,43,0,65,0,0,0,0,90,123,0,51,0,0,130,0,0,0,0,0,0,0,0,0,0,0,0,0,0,0,0,0,0,0,0,0,0,0,0,0,0],"split_type":[0,0,0,0,0,0,0,0,0,0,0,0,0,0,0,0,0,0,0,0,0,0,0,0,0,0,0,0,0,0,0,0,0,0,0,0,0,0,0,0,0,0,0,0,0,0,0,0,0,0,0,0,0,0,0,0,0,0,0,0,0,0,0,0,0,0,0,0,0,0,0,0,0,0,0],"sum_hessian":[6.4116296E2,5.288727E2,1.1229031E2,4.7900452E2,4.9868164E1,9.894206E1,1.33482485E1,4.093097E2,6.9694824E1,4.76602E1,2.2079644E0,3.5017933E1,6.3924133E1,8.099834E0,5.2484136E0,1.9285947E2,2.1645021E2,4.543214E1,2.4262684E1,4.505409E1,2.6061084E0,1.2069969E0,1.0009675E0,1.0117932E1,2.49E1,6.2216785E1,1.7073495E0,4.405529E0,3.6943054E0,7.475168E1,1.1810778E2,2.9905529E1,1.865447E2,3.828882E1,7.143323E0,2.3220774E1,1.0419105E0,2.295525E0,4.2758564E1,1.0057665E0,1.6003418E0,4.35706E0,5.7608724E0,2.3194027E1,1.7059728E0,6.112455E1,1.0922356E0,1.8573188E0,2.5482104E0,2.5517075E0,1.1425979E0,6.3702225E1,1.1049454E1,1.00877365E2,1.7230421E1,2.5585909E1,4.3196206E0,1.6972612E2,1.6818563E1,1.5517038E1,2.277178E1,4.600618E0,2.5427048E0,2.2111856E1,1.1089175E0,1.0038246E0,1.2917005E0,3.4782443E0,2.2826278E0,1.8336893E1,4.8571334E0,1.0214025E0,6.0103146E1,1.0501206E0,1.4980898E0],"tree_param":{"num_deleted":"0","num_feature":"165","num_nodes":"75","size_leaf_vector":"1"}},{"base_weights":[-1.1041116E-1,-3.569541E-2,-9.746684E-1,-1.2257801E-1,6.166926E-1,-5.0030127E-3,-2.9854035E-1,-3.50625E-1,9.2987E-2,9.6676224E-1,2.1234553E-1,-7.5304776E-1,-2.1972448E-1,1.7042519E-1,-2.936936E-1,2.981125E-1,3.0700231E-2,-2.0463343E-1,9.4517213E-1,-8.4349006E-1,3.8613266E-1,6.024042E-1,-4.3621215E-1,2.9465207E-1,-5.7621723E-1,6.9309247E-1,-5.737998E-1,1.0649512E0,-4.6822228E-2,1.1610504E-1,-2.733966E-1,3.1528738E-1,-1.9138193E-1,-1.7436329E-1,4.3150157E-1,3.7426013E-1,-1.7518637E-1,1.360935E-1,-1.15013175E-1,-2.5681174E-1,1.572591E-1,3.213946E-1,-1.6533175E-1,6.173576E-2,-2.7839342E-1,3.411786E-1,8.18521E-2],"categories":[],"categories_nodes":[],"categories_segments":[],"categories_sizes":[],"default_left":[0,0,0,0,0,0,0,0,0,0,0,0,0,0,0,0,0,0,0,0,0,0,0,0,0,0,0,0,0,0,0,0,0,0,0,0,0,0,0,0,0,0,0,0,0,0,0],"id":11,"left_children":[1,3,5,7,9,-1,-1,11,13,15,17,19,21,23,-1,-1,-1,25,27,29,31,33,35,37,39,41,43,45,-1,-1,-1,-1,-1,-1,-1,-1,-1,-1,-1,-1,-1,-1,-1,-1,-1,-1,-1],"loss_changes":[3.8459167E1,3.1234838E1,9.1267776E-1,2.3921684E1,8.963236E0,0E0,0E0,1.2284874E1,2.096984E1,7.004013E-1,9.769362E0,6.2600975E0,3.225519E1,2.1927134E1,0E0,0E0,0E0,7.28938E0,1.688755E0,4.83292E0,4.0218463E0,3.8322582E1,3.6267647E1,2.1925465E1,1.0856262E1,3.6550834E0,4.4106607E0,2.9331493E-1,0E0,0E0,0E0,0E0,0E0,0E0,0E0,0E0,0E0,0E0,0E0,0E0,0E0,0E0,0E0,0E0,0E0,0E0,0E0],"parents":[2147483647,0,0,1,1,2,2,3,3,4,4,7,7,8,8,9,9,10,10,11,11,12,12,13,13,17,17,18,18,19,19,20,20,21,21,22,22,23,23,24,24,25,25,26,26,27,27],"right_children":[2,4,6,8,10,-1,-1,12,14,16,18,20,22,24,-1,-1,-1,26,28,30,32,34,36,38,40,42,44,46,-1,-1,-1,-1,-1,-1,-1,-1,-1,-1,-1,-1,-1,-1,-1,-1,-1,-1,-1],"split_conditions":[-1.5678655E-1,-9.5103934E-2,-1.6938058E-1,1.0186019E0,-4.8743534E-1,-5.0030127E-3,-2.9854035E-1,-1.62277E-1,-2.4024522E-2,1.2229186E0,-1.5437783E-1,-1.7632712E-2,-1.527772E-1,1.7701456E-1,-2.936936E-1,2.981125E-1,3.0700231E-2,-7.4172133E-1,2.3175352E0,-1.4370672E-1,-3.915062E-2,-1.6337278E-1,-1.2970841E0,-1.0056839E-1,-2.6224664E-1,-2.3902094E-1,-1.553869E-1,-1.3650863E-1,-4.6822228E-2,1.1610504E-1,-2.733966E-1,3.1528738E-1,-1.9138193E-1,-1.7436329E-1,4.3150157E-1,3.7426013E-1,-1.7518637E-1,1.360935E-1,-1.15013175E-1,-2.5681174E-1,1.572591E-1,3.213946E-1,-1.6533175E-1,6.173576E-2,-2.7839342E-1,3.411786E-1,8.18521E-2],"split_indices":[64,75,8,2,52,0,0,1,4,135,60,71,1,108,0,0,0,88,90,124,57,7,100,129,82,40,141,96,0,0,0,0,0,0,0,0,0,0,0,0,0,0,0,0,0,0,0],"split_type":[0,0,0,0,0,0,0,0,0,0,0,0,0,0,0,0,0,0,0,0,0,0,0,0,0,0,0,0,0,0,0,0,0,0,0,0,0,0,0,0,0,0,0,0,0,0,0],"sum_hessian":[5.951251E2,5.487284E2,4.639672E1,4.849559E2,6.3772503E1,1.0084256E0,4.5388298E1,2.3535086E2,2.4960504E2,3.3434853E1,3.0337652E1,5.6598698E1,1.7875215E2,2.3357289E2,1.6032158E1,3.2279083E1,1.1557665E0,1.9795027E1,1.0542625E1,5.267617E1,3.9225242E0,3.6887276E1,1.4186488E2,2.0077344E2,3.2799458E1,5.5124903E0,1.42825365E1,9.53815E0,1.004476E0,2.5062366E0,5.0169937E1,2.3625252E0,1.5599991E0,1.5394555E1,2.149272E1,1.0843455E1,1.3102142E2,1.6290446E2,3.786897E1,2.6326918E1,6.4725385E0,4.3339634E0,1.1785269E0,4.592628E0,9.689908E0,8.340977E0,1.1971731E0],"tree_param":{"num_deleted":"0","num_feature":"165","num_nodes":"47","size_leaf_vector":"1"}},{"base_weights":[-9.46731E-2,-3.337775E-2,-9.589735E-1,-8.36091E-1,2.476326E-2,-4.2614206E-3,-2.9571903E-1,-8.669825E-2,-9.050547E-1,1.3131395E-1,-3.8698262E-1,1.0546565E-1,-1.7111444E-1,-5.0631524E-3,-9.3385005E-1,-6.201945E-1,2.1014844E-1,-6.1650944E-1,-8.184953E-2,-4.293525E-2,-2.9166734E-1,-7.772024E-1,3.3971265E-1,-6.458283E-1,2.725325E-1,1.537871E-1,-7.6293737E-1,8.8570607E-1,-3.5255414E-1,1.0403222E-1,-2.6114312E-1,-1.281406E-1,3.844705E-1,2.3409836E-1,-2.3153538E-1,1.5448695E-1,5.088224E-3,-1.5222739E-1,1.9616905E-1,8.23908E-3,-2.6370823E-1,-5.4581486E-2,6.2355757E-1,-2.0628451E-1,1.0316419E-1],"categories":[],"categories_nodes":[],"categories_segments":[],"categories_sizes":[],"default_left":[0,0,0,0,0,0,0,0,0,0,0,0,0,0,0,0,0,0,0,0,0,0,0,0,0,0,0,0,0,0,0,0,0,0,0,0,0,0,0,0,0,0,0,0,0],"id":12,"left_children":[1,3,5,7,9,-1,-1,11,13,15,17,-1,-1,-1,19,21,23,25,27,-1,-1,29,31,33,35,37,39,41,43,-1,-1,-1,-1,-1,-1,-1,-1,-1,-1,-1,-1,-1,-1,-1,-1],"loss_changes":[2.8724834E1,2.3724735E1,8.937645E-1,1.6958294E0,2.0871035E1,0E0,0E0,1.0482284E0,7.855854E-1,2.2510326E1,6.800109E0,0E0,0E0,0E0,7.811985E-1,5.707464E0,1.8472582E1,6.3965397E0,1.1612724E1,0E0,0E0,3.5880032E0,4.717041E0,4.836562E0,1.9821432E1,3.5474594E0,4.3317814E0,1.2752596E1,8.270073E0,0E0,0E0,0E0,0E0,0E0,0E0,0E0,0E0,0E0,0E0,0E0,0E0,0E0,0E0,0E0,0E0],"parents":[2147483647,0,0,1,1,2,2,3,3,4,4,7,7,8,8,9,9,10,10,14,14,15,15,16,16,17,17,18,18,21,21,22,22,23,23,24,24,25,25,26,26,27,27,28,28],"right_children":[2,4,6,8,10,-1,-1,12,14,16,18,-1,-1,-1,20,22,24,26,28,-1,-1,30,32,34,36,38,40,42,44,-1,-1,-1,-1,-1,-1,-1,-1,-1,-1,-1,-1,-1,-1,-1,-1],"split_conditions":[-1.5678655E-1,-3.9151095E-2,-1.6938058E-1,-4.882697E-1,-3.3576332E-4,-4.2614206E-3,-2.9571903E-1,-5.5684686E-1,-1.636452E-1,-4.1401598E-1,6.0850734E-1,1.0546565E-1,-1.7111444E-1,-5.0631524E-3,-6.117692E-1,-8.163701E-2,-1.7984E-1,-4.674909E-1,-1.6586228E-1,-4.293525E-2,-2.9166734E-1,-4.3874547E-2,-1.2727392E-1,-1.4370672E-1,-9.396642E-2,-1.755485E-1,-2.1850233E0,-8.014611E-2,-2.550244E-1,1.0403222E-1,-2.6114312E-1,-1.281406E-1,3.844705E-1,2.3409836E-1,-2.3153538E-1,1.5448695E-1,5.088224E-3,-1.5222739E-1,1.9616905E-1,8.23908E-3,-2.6370823E-1,-5.4581486E-2,6.2355757E-1,-2.0628451E-1,1.0316419E-1],"split_indices":[64,57,8,52,120,0,0,156,7,51,136,0,0,0,154,101,1,54,10,0,0,4,106,124,1,18,11,23,83,0,0,0,0,0,0,0,0,0,0,0,0,0,0,0,0],"split_type":[0,0,0,0,0,0,0,0,0,0,0,0,0,0,0,0,0,0,0,0,0,0,0,0,0,0,0,0,0,0,0,0,0,0,0,0,0,0,0,0,0,0,0,0,0],"sum_hessian":[5.4181146E2,5.0690115E2,3.4910316E1,3.3331768E1,4.735694E2,1.0036162E0,3.39067E1,2.9991138E0,3.0332655E1,3.767547E2,9.6814674E1,1.7167745E0,1.2823392E0,1.0023339E0,2.9330322E1,3.5117897E1,3.416368E2,5.4670242E1,4.2144436E1,1.5764246E0,2.7753897E1,3.0344856E1,4.773042E0,2.257201E1,3.190648E2,8.724421E0,4.594582E1,8.71682E0,3.3427616E1,2.1169882E0,2.8227869E1,2.9321864E0,1.840856E0,1.4101515E0,2.116186E1,1.632234E2,1.5584138E2,3.7507727E0,4.973648E0,5.9818354E0,3.9963985E1,5.0469604E0,3.6698592E0,2.257787E1,1.0849746E1],"tree_param":{"num_deleted":"0","num_feature":"165","num_nodes":"45","size_leaf_vector":"1"}},{"base_weights":[-8.130072E-2,-3.3008184E-2,-9.396447E-1,1.0174824E-2,-2.93085E-1,-7.2316416E-3,-2.9229137E-1,6.2417477E-2,-7.591952E-1,-1.7303807E-3,6.2094516E-1,-8.931614E-1,3.732112E-1,-1.13983914E-1,2.9915735E-1,8.553483E-1,1.3808176E-1,-2.891651E-1,1.3372576E-1,3.7203684E-1,-1.8233205E-1,-3.3334113E-4,-2.3742777E-1,1.8836627E-2,2.3946187E-1,-1.21745296E-1,2.7787092E-1,-1.6716036E-1,2.2006902E-1],"categories":[],"categories_nodes":[],"categories_segments":[],"categories_sizes":[],"default_left":[0,0,0,0,0,0,0,0,0,0,0,0,0,0,0,0,0,0,0,0,0,0,0,0,0,0,0,0,0],"id":13,"left_children":[1,3,5,7,-1,-1,-1,9,11,13,15,17,19,21,23,25,27,-1,-1,-1,-1,-1,-1,-1,-1,-1,-1,-1,-1],"loss_changes":[2.1304153E1,1.9915012E1,8.453293E-1,1.8856085E1,0E0,0E0,0E0,1.5733949E1,4.8587837E0,1.3371365E1,5.0024376E0,2.9834442E0,4.037216E0,2.204471E1,1.263843E1,3.08148E0,7.0237374E0,0E0,0E0,0E0,0E0,0E0,0E0,0E0,0E0,0E0,0E0,0E0,0E0],"parents":[2147483647,0,0,1,1,2,2,3,3,7,7,8,8,9,9,10,10,11,11,12,12,13,13,14,14,15,15,16,16],"right_children":[2,4,6,8,-1,-1,-1,10,12,14,16,18,20,22,24,26,28,-1,-1,-1,-1,-1,-1,-1,-1,-1,-1,-1,-1],"split_conditions":[-1.5678655E-1,-2.4024522E-2,-1.6937709E-1,-3.2040502E-3,-2.93085E-1,-7.2316416E-3,-2.9229137E-1,-9.502925E-2,1.8585333E-1,-1.3661063E-1,-2.2713976E-1,1.1887124E1,-1.3454539E-1,1.2538202E0,4.1658893E-1,-2.2790349E-1,-1.5915623E-1,-2.891651E-1,1.3372576E-1,3.7203684E-1,-1.8233205E-1,-3.3334113E-4,-2.3742777E-1,1.8836627E-2,2.3946187E-1,-1.21745296E-1,2.7787092E-1,-1.6716036E-1,2.2006902E-1],"split_indices":[64,4,8,124,0,0,0,75,131,124,39,107,98,99,52,25,60,0,0,0,0,0,0,0,0,0,0,0,0],"split_type":[0,0,0,0,0,0,0,0,0,0,0,0,0,0,0,0,0,0,0,0,0,0,0,0,0,0,0,0,0],"sum_hessian":[5.137007E2,4.8732126E2,2.6379433E1,4.6694873E2,2.037253E1,1.0240712E0,2.5355362E1,4.38118E2,2.8830725E1,3.9387744E2,4.4240593E1,2.5969719E1,2.861004E0,2.8731042E2,1.0656701E2,2.9263428E1,1.4977162E1,2.4932852E1,1.0368677E0,1.3785746E0,1.4824294E0,2.4713533E2,4.0175095E1,7.307955E1,3.3487453E1,1.305876E0,2.7957552E1,6.9392247E0,8.037938E0],"tree_param":{"num_deleted":"0","num_feature":"165","num_nodes":"29","size_leaf_vector":"1"}},{"base_weights":[-6.742605E-2,1.3511559E-2,-5.2409023E-1,9.321879E-2,-4.6687147E-1,2.2933972E-1,-5.638235E-1,-4.1233242E-1,1.6372593E-1,-1.5091725E-1,-8.6492175E-1,-1.9724427E-1,-6.771706E-1,-5.466737E-1,8.451469E-1,6.8818265E-1,4.0004645E-2,-5.208766E-1,6.851872E-1,1.8087862E-3,-9.339567E-1,5.192585E-1,-6.356624E-1,8.481231E-2,-7.178496E-1,-8.229898E-1,-6.4013496E-2,-3.866177E-2,3.567246E-1,1.0850136E0,-1.15593635E-1,1.0854525E-1,-7.383001E-1,-1.1803259E-2,-9.346627E-1,1.0361606E0,-2.0789805E-1,-2.9193544E-1,-9.797782E-3,-1.7019935E-1,9.8524255E-1,-3.606625E-2,-2.8667226E-1,-9.8254037E-1,-5.440043E-1,1.883038E-1,-2.7926546E-1,-1.8460923E-1,2.287594E-1,3.663351E-1,-2.1532616E-1,-2.959755E-1,9.397058E-2,-2.1278018E-2,1.19419195E-1,-2.5330082E-1,2.0298953E-1,2.7925307E-1,-1.21880196E-1,-2.8970834E-2,-2.9847348E-1,-1.2866975E-1,4.7118166E-1,-5.630094E-2,4.083157E-1,-2.4218374E-1,2.6090592E-1,-3.099247E-1,-7.4256067E-3,1.06394455E-1,-2.0637871E-1],"categories":[],"categories_nodes":[],"categories_segments":[],"categories_sizes":[],"default_left":[0,0,0,0,0,0,0,0,0,0,0,0,0,0,0,0,0,0,0,0,0,0,0,0,0,0,0,0,0,0,0,0,0,0,0,0,0,0,0,0,0,0,0,0,0,0,0,0,0,0,0,0,0,0,0,0,0,0,0,0,0,0,0,0,0,0,0,0,0,0,0],"id":14,"left_children":[1,3,5,7,9,-1,11,13,15,17,19,21,23,25,27,29,31,33,35,-1,37,39,41,-1,43,45,47,-1,-1,49,51,53,55,57,59,61,-1,-1,-1,-1,63,65,-1,67,69,-1,-1,-1,-1,-1,-1,-1,-1,-1,-1,-1,-1,-1,-1,-1,-1,-1,-1,-1,-1,-1,-1,-1,-1,-1,-1],"loss_changes":[1.8073578E1,1.5979059E1,4.199995E0,1.28208E1,7.3391457E0,0E0,2.8575878E0,7.9078054E0,2.0392933E1,1.0973757E1,1.5731716E0,6.114066E0,2.3339424E0,5.3391695E0,1.7100027E0,1.9266043E1,1.3720679E1,5.1208367E0,6.0196257E0,0E0,8.210659E-1,4.376754E0,2.242949E0,0E0,1.8876896E0,4.595234E0,7.6709127E0,0E0,0E0,1.0757385E1,8.054866E0,1.2284578E1,3.695571E0,4.8165445E0,5.818634E-1,7.8274174E0,0E0,0E0,0E0,0E0,2.7425704E0,4.3134418E0,0E0,9.2453E-1,4.6430607E0,0E0,0E0,0E0,0E0,0E0,0E0,0E0,0E0,0E0,0E0,0E0,0E0,0E0,0E0,0E0,0E0,0E0,0E0,0E0,0E0,0E0,0E0,0E0,0E0,0E0,0E0],"parents":[2147483647,0,0,1,1,2,2,3,3,4,4,6,6,7,7,8,8,9,9,10,10,11,11,12,12,13,13,14,14,15,15,16,16,17,17,18,18,20,20,21,21,22,22,24,24,25,25,26,26,29,29,30,30,31,31,32,32,33,33,34,34,35,35,40,40,41,41,43,43,44,44],"right_children":[2,4,6,8,10,-1,12,14,16,18,20,22,24,26,28,30,32,34,36,-1,38,40,42,-1,44,46,48,-1,-1,50,52,54,56,58,60,62,-1,-1,-1,-1,64,66,-1,68,70,-1,-1,-1,-1,-1,-1,-1,-1,-1,-1,-1,-1,-1,-1,-1,-1,-1,-1,-1,-1,-1,-1,-1,-1,-1,-1],"split_conditions":[5.278764E-1,-6.82657E-2,-1.7109743E-1,-1.685153E-1,-3.6243343E-1,2.2933972E-1,-4.6737325E-1,-1.7633801E-2,-1.527772E-1,-2.3934165E-1,-2.4349315E0,-1.9848521E-1,-4.140226E-1,1.1227497E0,-2.4591148E-1,-4.811649E-1,-1.2264408E-1,-1.5411662E0,1.5074208E-1,1.8087862E-3,1.5651965E0,-2.9928058E-1,-1.8219084E-1,8.481231E-2,-1.4890826E-1,-2.6561792E0,-2.8207797E-1,-3.866177E-2,3.567246E-1,-4.693209E-2,-1.6573173E-1,-1.6092943E-1,-2.3413058E-2,1.82794E-2,-6.9422024E-1,-7.204778E-1,-2.0789805E-1,-2.9193544E-1,-9.797782E-3,-1.7019935E-1,2.6112258E-1,-1.6147457E-1,-2.8667226E-1,5.055052E-1,-2.3927037E-1,1.883038E-1,-2.7926546E-1,-1.8460923E-1,2.287594E-1,3.663351E-1,-2.1532616E-1,-2.959755E-1,9.397058E-2,-2.1278018E-2,1.19419195E-1,-2.5330082E-1,2.0298953E-1,2.7925307E-1,-1.21880196E-1,-2.8970834E-2,-2.9847348E-1,-1.2866975E-1,4.7118166E-1,-5.630094E-2,4.083157E-1,-2.4218374E-1,2.6090592E-1,-3.099247E-1,-7.4256067E-3,1.06394455E-1,-2.0637871E-1],"split_indices":[89,160,93,1,52,0,54,71,1,40,97,130,51,91,77,52,0,163,155,0,155,137,108,0,22,103,138,0,0,3,10,60,101,159,89,90,0,0,0,0,114,1,0,162,40,0,0,0,0,0,0,0,0,0,0,0,0,0,0,0,0,0,0,0,0,0,0,0,0,0,0],"split_type":[0,0,0,0,0,0,0,0,0,0,0,0,0,0,0,0,0,0,0,0,0,0,0,0,0,0,0,0,0,0,0,0,0,0,0,0,0,0,0,0,0,0,0,0,0,0,0,0,0,0,0,0,0,0,0,0,0,0,0,0,0,0,0,0,0,0,0,0,0,0,0],"sum_hessian":[4.877949E2,4.1518018E2,7.2614716E1,3.5678656E2,5.839362E1,1.6265204E0,7.098819E1,4.3075798E1,3.1371075E2,3.332271E1,2.5070911E1,1.7412868E1,5.3575325E1,3.9428738E1,3.64706E0,5.9008846E1,2.547019E2,2.3362356E1,9.960351E0,1.9082991E0,2.3162613E1,6.540081E0,1.08727865E1,1.9362849E0,5.1639038E1,2.462574E1,1.4802998E1,1.1149203E0,2.5321395E0,3.9270687E1,1.973816E1,2.3487814E2,1.9823767E1,1.0936235E1,1.2426122E1,8.136455E0,1.8238965E0,2.2121735E1,1.0408767E0,1.8976402E0,4.642441E0,4.16996E0,6.702827E0,1.8626762E1,3.3012276E1,1.3712689E0,2.3254473E1,9.032994E0,5.770003E0,3.6813988E1,2.456698E0,6.0827923E0,1.3655367E1,1.4546176E2,8.941639E1,1.8816883E1,1.0068831E0,2.825175E0,8.111061E0,1.007944E0,1.1418178E1,2.227568E0,5.908887E0,1.2480057E0,3.394435E0,2.3109753E0,1.8589848E0,1.7618437E1,1.0083255E0,4.3551283E0,2.8657148E1],"tree_param":{"num_deleted":"0","num_feature":"165","num_nodes":"71","size_leaf_vector":"1"}},{"base_weights":[-5.9220336E-2,-1.87669E-2,-8.8329303E-1,1.2871658E-2,-2.8534484E-1,-2.9135573E-1,-2.0529248E-2,-4.5419267E-1,7.566079E-2,1.4415835E-1,-1.5250525E-1,6.8858586E-2,-7.177766E-1,5.000394E-1,-1.0940709E-2,-2.6733398E-1,5.038005E-1,-8.188483E-1,3.2317862E-1,9.158508E-1,-1.9291802E-1,-1.7256442E-1,2.3953171E-1,3.047466E-1,-1.9417508E-1,-2.6243463E-1,1.0189154E-1,4.0556255E-1,-1.8891123E-1,3.327608E-1,-1.9446978E-1,-2.802893E-1,3.9468523E-2,-2.4179734E-1,-1.9037904E-2,1.6497224E-4,2.7665874E-1],"categories":[],"categories_nodes":[],"categories_segments":[],"categories_sizes":[],"default_left":[0,0,0,0,0,0,0,0,0,0,0,0,0,0,0,0,0,0,0,0,0,0,0,0,0,0,0,0,0,0,0,0,0,0,0,0,0],"id":15,"left_children":[1,3,5,7,-1,-1,9,11,13,-1,-1,15,17,19,21,-1,23,25,27,29,31,33,35,-1,-1,-1,-1,-1,-1,-1,-1,-1,-1,-1,-1,-1,-1],"loss_changes":[1.5347129E1,1.3001434E1,1.6137142E0,1.2552655E1,0E0,0E0,9.808282E-1,7.0430136E0,1.3865749E1,0E0,0E0,7.9268837E0,3.822544E0,1.8599792E1,1.2760608E1,0E0,8.298164E0,2.3127956E0,4.4878E0,1.2856274E1,6.0898676E0,1.3186734E1,2.0171497E1,0E0,0E0,0E0,0E0,0E0,0E0,0E0,0E0,0E0,0E0,0E0,0E0,0E0,0E0],"parents":[2147483647,0,0,1,1,2,2,3,3,6,6,7,7,8,8,11,11,12,12,13,13,14,14,16,16,17,17,18,18,19,19,20,20,21,21,22,22],"right_children":[2,4,6,8,-1,-1,10,12,14,-1,-1,16,18,20,22,-1,24,26,28,30,32,34,36,-1,-1,-1,-1,-1,-1,-1,-1,-1,-1,-1,-1,-1,-1],"split_conditions":[1.9686214E0,-2.4024522E-2,-2.4539454E-2,-1.685153E-1,-2.8534484E-1,-2.9135573E-1,9.054339E-2,-1.4891161E-1,-1.527772E-1,1.4415835E-1,-1.5250525E-1,1.469972E-1,1.3859627E0,-4.811649E-1,-8.260524E-2,-2.6733398E-1,-1.1544312E-1,-2.724609E-2,-7.140091E-1,2.4694774E-1,-1.6574064E-1,-4.1401097E-1,3.4813873E-2,3.047466E-1,-1.9417508E-1,-2.6243463E-1,1.0189154E-1,4.0556255E-1,-1.8891123E-1,3.327608E-1,-1.9446978E-1,-2.802893E-1,3.9468523E-2,-2.4179734E-1,-1.9037904E-2,1.6497224E-4,2.7665874E-1],"split_indices":[52,4,33,1,0,0,139,22,1,0,0,148,54,52,101,0,100,107,90,157,10,51,54,0,0,0,0,0,0,0,0,0,0,0,0,0,0],"split_type":[0,0,0,0,0,0,0,0,0,0,0,0,0,0,0,0,0,0,0,0,0,0,0,0,0,0,0,0,0,0,0,0,0,0,0,0,0],"sum_hessian":[4.5986636E2,4.393229E2,2.0543432E1,4.2585846E2,1.3464471E1,1.8530045E1,2.0133872E0,4.972673E1,3.761317E2,1.0005955E0,1.0127919E0,1.6909863E1,3.2816864E1,6.293813E1,3.131936E2,4.9455657E0,1.1964297E1,3.010699E1,2.7098742E0,3.913399E1,2.3804136E1,1.9054842E2,1.2264517E2,8.36208E0,3.6022177E0,2.8953938E1,1.1530544E0,1.1017475E0,1.6081266E0,3.508733E1,4.046661E0,6.674561E0,1.7129576E1,2.705993E1,1.6348848E2,9.158471E1,3.1060467E1],"tree_param":{"num_deleted":"0","num_feature":"165","num_nodes":"37","size_leaf_vector":"1"}},{"base_weights":[-5.1823977E-2,-2.3189032E-1,9.9747226E-2,-3.4265006E-1,2.5789738E-1,1.7334966E-1,-5.7173014E-1,2.9123473E-1,-4.0686533E-1,6.0128695E-1,-5.275913E-1,-6.313302E-1,2.4690166E-1,-6.7740095E-1,2.0855133E-1,6.5427655E-1,-6.5461725E-1,-5.521015E-1,-1.4510004E-1,3.374809E-1,1.7242153E0,1.7765869E-1,-8.0612636E-1,-7.5527203E-1,1.119088E-1,3.2231164E-1,-4.7917256E-1,-1.0144666E-3,-9.160916E-1,-1.6013366E-1,9.040396E-1,-2.4589542E-1,-3.254181E-3,-2.5583464E-1,-7.654627E-1,2.0293875E-2,-2.7560738E-1,6.4698136E-1,-4.2953518E-1,-5.38401E-2,2.3298295E0,2.3703499E-2,-2.905115E-1,-8.82515E-1,-8.7830804E-2,2.1537678E-2,5.151505E-1,-6.750795E-1,7.450436E-1,-2.236966E-1,5.405376E-1,-1.1961341E-2,-2.910896E-1,3.5198832E-1,-9.0839885E-2,5.843546E-2,-2.0976914E-1,9.823141E-2,-2.3776107E-1,-6.013558E-2,2.4172615E-1,-9.169603E-2,3.0157036E-1,1.4915729E-1,-2.0695399E-1,2.163326E-1,9.959671E-1,1.064799E-3,-2.883027E-1,-2.2479428E-1,2.5735965E-1,1.3505727E-1,-6.326938E-2,1.8103594E-1,-2.1759422E-1,-2.5276968E-2,-2.66747E-1,3.5785958E-1,-2.1869168E-2,2.9369774E-1,-1.5265171E-1],"categories":[],"categories_nodes":[],"categories_segments":[],"categories_sizes":[],"default_left":[0,0,0,0,0,0,0,0,0,0,0,0,0,0,0,0,0,0,0,0,0,0,0,0,0,0,0,0,0,0,0,0,0,0,0,0,0,0,0,0,0,0,0,0,0,0,0,0,0,0,0,0,0,0,0,0,0,0,0,0,0,0,0,0,0,0,0,0,0,0,0,0,0,0,0,0,0,0,0,0,0],"id":16,"left_children":[1,3,5,7,9,11,13,15,17,19,21,23,25,27,-1,29,31,33,35,37,39,-1,41,43,-1,45,47,49,51,-1,53,-1,-1,55,57,59,-1,61,63,-1,65,-1,-1,67,69,71,73,75,77,-1,79,-1,-1,-1,-1,-1,-1,-1,-1,-1,-1,-1,-1,-1,-1,-1,-1,-1,-1,-1,-1,-1,-1,-1,-1,-1,-1,-1,-1,-1,-1],"loss_changes":[1.2060053E1,1.1039442E1,1.1968404E1,6.837534E0,1.0513321E1,1.3011247E1,3.6781144E0,5.842289E0,5.633957E0,7.3483267E0,4.2299395E0,2.5811677E0,1.1090396E1,3.6508293E0,0E0,4.011774E0,5.0883293E-1,5.892082E0,7.0544834E0,5.719102E0,6.0088005E0,0E0,1.5209723E0,1.3470106E0,0E0,1.0518227E1,5.1064224E0,3.185994E0,7.5536346E-1,0E0,3.6693487E0,0E0,0E0,8.492565E0,1.9013176E0,8.186299E0,0E0,6.0169425E0,2.0776646E0,0E0,3.5793896E0,0E0,0E0,9.755354E-1,3.0176017E0,7.265067E0,1.2549412E1,2.084278E0,1.2309804E0,0E0,2.6031785E0,0E0,0E0,0E0,0E0,0E0,0E0,0E0,0E0,0E0,0E0,0E0,0E0,0E0,0E0,0E0,0E0,0E0,0E0,0E0,0E0,0E0,0E0,0E0,0E0,0E0,0E0,0E0,0E0,0E0,0E0],"parents":[2147483647,0,0,1,1,2,2,3,3,4,4,5,5,6,6,7,7,8,8,9,9,10,10,11,11,12,12,13,13,15,15,16,16,17,17,18,18,19,19,20,20,22,22,23,23,25,25,26,26,27,27,28,28,30,30,33,33,34,34,35,35,37,37,38,38,40,40,43,43,44,44,45,45,46,46,47,47,48,48,50,50],"right_children":[2,4,6,8,10,12,14,16,18,20,22,24,26,28,-1,30,32,34,36,38,40,-1,42,44,-1,46,48,50,52,-1,54,-1,-1,56,58,60,-1,62,64,-1,66,-1,-1,68,70,72,74,76,78,-1,80,-1,-1,-1,-1,-1,-1,-1,-1,-1,-1,-1,-1,-1,-1,-1,-1,-1,-1,-1,-1,-1,-1,-1,-1,-1,-1,-1,-1,-1,-1],"split_conditions":[1.0186019E0,1.2031242E0,-1.415683E-1,-6.9422835E-1,-2.934934E-1,-2.5833628E0,1.733804E0,1.5230414E-1,-2.9374087E-1,-1.7329347E-1,-4.8811722E-1,2.5543505E-2,1.6418248E0,-1.4123248E-1,2.0855133E-1,-1.5955907E-1,-8.8826805E-2,-1.3105236E0,-7.3945016E-2,-1.3987951E-1,-5.125602E-1,1.7765869E-1,-5.205775E-1,1.6648071E0,1.119088E-1,-1.6093194E-1,7.5869095E-1,-1.6227596E-1,-1.8410255E-1,-1.6013366E-1,-1.710188E-1,-2.4589542E-1,-3.254181E-3,-5.828826E-1,-1.3738124E0,-1.6523549E-1,-2.7560738E-1,-1.9111688E-1,-2.1199912E-1,-5.38401E-2,-1.489072E-1,2.3703499E-2,-2.905115E-1,-2.3253866E-1,-1.6356881E-1,-4.811649E-1,-1.6216709E-1,-1.7266567E-1,-2.3930602E-1,-2.236966E-1,-1.2956935E0,-1.1961341E-2,-2.910896E-1,3.5198832E-1,-9.0839885E-2,5.843546E-2,-2.0976914E-1,9.823141E-2,-2.3776107E-1,-6.013558E-2,2.4172615E-1,-9.169603E-2,3.0157036E-1,1.4915729E-1,-2.0695399E-1,2.163326E-1,9.959671E-1,1.064799E-3,-2.883027E-1,-2.2479428E-1,2.5735965E-1,1.3505727E-1,-6.326938E-2,1.8103594E-1,-2.1759422E-1,-2.5276968E-2,-2.66747E-1,3.5785958E-1,-2.1869168E-2,2.9369774E-1,-1.5265171E-1],"split_indices":[2,147,16,89,87,121,95,52,87,137,52,162,142,1,0,1,126,79,41,94,149,0,136,53,0,60,130,141,94,0,17,0,0,90,135,53,0,130,132,0,22,0,0,53,7,52,59,17,40,0,80,0,0,0,0,0,0,0,0,0,0,0,0,0,0,0,0,0,0,0,0,0,0,0,0,0,0,0,0,0,0],"split_type":[0,0,0,0,0,0,0,0,0,0,0,0,0,0,0,0,0,0,0,0,0,0,0,0,0,0,0,0,0,0,0,0,0,0,0,0,0,0,0,0,0,0,0,0,0,0,0,0,0,0,0,0,0,0,0,0,0,0,0,0,0,0,0,0,0,0,0,0,0,0,0,0,0,0,0,0,0,0,0,0,0],"sum_hessian":[4.4002805E2,2.0086768E2,2.3916039E2,1.6406639E2,3.6801277E1,2.1620357E2,2.2956812E1,1.4766578E1,1.4929982E2,2.5769997E1,1.1031281E1,1.7471954E1,1.9873161E2,2.1618912E1,1.3379003E0,1.0893605E1,3.8729727E0,9.530967E1,5.399015E1,2.1920757E1,3.8492393E0,1.9730346E0,9.058247E0,1.5773456E1,1.6984994E0,1.8053714E2,1.8194477E1,5.9010735E0,1.5717838E1,1.6947925E0,9.1988125E0,2.8652456E0,1.007727E0,4.0823063E1,5.4486603E1,4.528251E1,8.707641E0,1.5730003E1,6.1907554E0,1.0988345E0,2.7504048E0,1.4826391E0,7.5756073E0,1.2977206E1,2.796249E0,7.0964424E1,1.0957271E2,1.6071218E1,2.1232588E0,2.3259616E0,3.575112E0,1.0168381E0,1.4701E1,7.54358E0,1.6552327E0,2.052469E1,2.0298374E1,1.0489665E0,5.3437637E1,3.5929634E1,9.352875E0,4.3389835E0,1.1391019E1,1.1580465E0,5.0327086E0,1.7062755E0,1.0441293E0,1.1337591E0,1.1843448E1,1.7675587E0,1.0286903E0,2.4621357E1,4.634307E1,1.0277051E2,6.8022046E0,4.6450644E0,1.1426155E1,1.0758538E0,1.0474049E0,2.5688548E0,1.0062573E0],"tree_param":{"num_deleted":"0","num_feature":"165","num_nodes":"81","size_leaf_vector":"1"}},{"base_weights":[-4.8515365E-2,-7.566983E-1,-1.280338E-2,-1.4098555E-1,-9.094259E-1,1.4812026E-2,-2.7612993E-1,1.653349E-1,-1.8019971E-1,-8.7092355E-2,-2.813182E-1,-2.1059938E-2,6.0593325E-1,-3.7417528E-1,6.802915E-2,1.0511549E0,-5.6960195E-1,-5.8731914E-1,2.526335E-1,-3.1259787E-1,1.65739E-1,1.3309636E0,-1.6317768E-1,7.501534E-2,-2.756987E-1,3.396165E-2,-1.9807826E-1,3.7402114E-1,-5.0844204E-2,-2.0957752E-1,8.118847E-2,7.340626E-2,-1.9160946E-1,-4.8212517E-2,4.5221958E-1,1.5832967E-1,-2.1046798E-1],"categories":[],"categories_nodes":[],"categories_segments":[],"categories_sizes":[],"default_left":[0,0,0,0,0,0,0,0,0,0,0,0,0,0,0,0,0,0,0,0,0,0,0,0,0,0,0,0,0,0,0,0,0,0,0,0,0],"id":17,"left_children":[1,3,5,7,9,11,-1,-1,-1,-1,-1,13,15,17,19,21,23,25,27,29,31,33,35,-1,-1,-1,-1,-1,-1,-1,-1,-1,-1,-1,-1,-1,-1],"loss_changes":[1.0615113E1,1.766695E0,1.006346E1,1.9817187E0,7.460594E-3,8.28476E0,0E0,0E0,0E0,0E0,0E0,1.1625862E1,1.22973995E1,1.0094182E1,1.1034527E1,5.845192E0,2.1739705E0,2.9287624E0,8.431763E0,1.384687E1,1.5121389E1,3.813898E0,1.8554993E0,0E0,0E0,0E0,0E0,0E0,0E0,0E0,0E0,0E0,0E0,0E0,0E0,0E0,0E0],"parents":[2147483647,0,0,1,1,2,2,3,3,4,4,5,5,11,11,12,12,13,13,14,14,15,15,16,16,17,17,18,18,19,19,20,20,21,21,22,22],"right_children":[2,4,6,8,10,12,-1,-1,-1,-1,-1,14,16,18,20,22,24,26,28,30,32,34,36,-1,-1,-1,-1,-1,-1,-1,-1,-1,-1,-1,-1,-1,-1],"split_conditions":[-3.9151095E-2,-5.915377E-1,-1.21963516E-1,-1.7288442E-1,-4.8831445E-1,-3.0008303E-2,-2.7612993E-1,1.653349E-1,-1.8019971E-1,-8.7092355E-2,-2.813182E-1,-2.9386628E-1,-3.6823735E-1,1.03142925E-1,-1.6360924E-1,3.431068E-1,-2.9888092E-2,-7.209783E-1,-2.1406716E-1,5.553798E-1,1.3184205E0,-1.6834907E-1,-1.3973148E-1,7.501534E-2,-2.756987E-1,3.396165E-2,-1.9807826E-1,3.7402114E-1,-5.0844204E-2,-2.0957752E-1,8.118847E-2,7.340626E-2,-1.9160946E-1,-4.8212517E-2,4.5221958E-1,1.5832967E-1,-2.1046798E-1],"split_indices":[57,156,60,64,52,70,0,0,0,0,0,87,142,3,7,136,70,90,132,136,99,141,21,0,0,0,0,0,0,0,0,0,0,0,0,0,0],"split_type":[0,0,0,0,0,0,0,0,0,0,0,0,0,0,0,0,0,0,0,0,0,0,0,0,0,0,0,0,0,0,0,0,0,0,0,0,0],"sum_hessian":[4.1910846E2,1.9150833E1,3.999576E2,4.188451E0,1.4962383E1,3.891025E2,1.0855095E1,1.5922384E0,2.5962124E0,1.146187E0,1.3816196E1,3.6775012E2,2.1352402E1,7.34444E1,2.9430573E2,1.5563643E1,5.7887588E0,5.4854378E1,1.8590015E1,5.9668575E1,2.3463715E2,1.2570971E1,2.9926724E0,1.8150669E0,3.9736917E0,5.1209846E0,4.9733395E1,4.9586205E0,1.3631395E1,3.578641E1,2.3882162E1,2.1430118E2,2.033597E1,1.3390529E0,1.1231918E1,1.319275E0,1.6733974E0],"tree_param":{"num_deleted":"0","num_feature":"165","num_nodes":"37","size_leaf_vector":"1"}},{"base_weights":[-4.3016996E-2,-1.8489255E-2,-2.7740753E-1,1.583077E-2,-6.588631E-1,7.950288E-2,-3.1762308E-1,-8.711951E-1,2.1344897E-1,-1.851053E-2,3.1262252E-1,-5.5500126E-1,2.4760433E-2,1.1671968E-3,-2.7931637E-1,3.700179E-1,-2.0693932E-1,6.723222E-1,-7.150865E-2,5.6187284E-1,-1.6396086E-1,-6.936405E-1,1.4909564E-1,4.4683215E-1,-4.2656168E-1,3.6571467E-1,-1.5210216E-1,-1.0621104E-2,-2.5453705E-1,8.938808E-2,3.4933883E-1,1.438255E-1,-1.3243027E-1,-2.4198735E-1,-2.4938703E-2,3.1069097E-1,-2.0265327E-1,-7.850688E-3,3.7987527E-1,1.5093893E-1,-2.0678574E-1],"categories":[],"categories_nodes":[],"categories_segments":[],"categories_sizes":[],"default_left":[0,0,0,0,0,0,0,0,0,0,0,0,0,0,0,0,0,0,0,0,0,0,0,0,0,0,0,0,0,0,0,0,0,0,0,0,0,0,0,0,0],"id":18,"left_children":[1,3,-1,5,7,9,11,13,15,17,19,21,23,-1,-1,-1,-1,25,27,29,31,33,35,37,39,-1,-1,-1,-1,-1,-1,-1,-1,-1,-1,-1,-1,-1,-1,-1,-1],"loss_changes":[8.758463E0,8.709928E0,0E0,8.022714E0,3.9197187E0,7.250745E0,4.938434E0,8.631649E-1,5.22631E0,8.255639E0,1.1247588E1,3.6006575E0,5.098911E0,0E0,0E0,0E0,0E0,1.0978514E1,5.8356624E0,9.4950695E0,6.1068735E0,2.0098543E0,5.6099997E0,5.383073E0,3.5131638E0,0E0,0E0,0E0,0E0,0E0,0E0,0E0,0E0,0E0,0E0,0E0,0E0,0E0,0E0,0E0,0E0],"parents":[2147483647,0,0,1,1,3,3,4,4,5,5,6,6,7,7,8,8,9,9,10,10,11,11,12,12,17,17,18,18,19,19,20,20,21,21,22,22,23,23,24,24],"right_children":[2,4,-1,6,8,10,12,14,16,18,20,22,24,-1,-1,-1,-1,26,28,30,32,34,36,38,40,-1,-1,-1,-1,-1,-1,-1,-1,-1,-1,-1,-1,-1,-1,-1,-1],"split_conditions":[-2.4024522E-2,-3.2040502E-3,-2.7740753E-1,3.5455278E-1,-1.6309501E-1,-1.22887E-1,-2.869121E-1,-6.2392022E-2,-1.23396814E-1,-1.2847897E-1,5.6937844E-2,1.0765811E0,3.086294E-1,1.1671968E-3,-2.7931637E-1,3.700179E-1,-2.0693932E-1,-1.613514E-1,4.7833046E-1,1.1887714E0,-1.3917083E-1,-2.02533E-1,1.3184205E0,-8.144697E-2,-1.9934706E-1,3.6571467E-1,-1.5210216E-1,-1.0621104E-2,-2.5453705E-1,8.938808E-2,3.4933883E-1,1.438255E-1,-1.3243027E-1,-2.4198735E-1,-2.4938703E-2,3.1069097E-1,-2.0265327E-1,-7.850688E-3,3.7987527E-1,1.5093893E-1,-2.0678574E-1],"split_indices":[4,124,0,89,59,126,137,126,129,126,106,138,138,0,0,0,0,108,3,99,94,40,99,101,130,0,0,0,0,0,0,0,0,0,0,0,0,0,0,0,0],"split_type":[0,0,0,0,0,0,0,0,0,0,0,0,0,0,0,0,0,0,0,0,0,0,0,0,0,0,0,0,0,0,0,0,0,0,0,0,0,0,0,0,0],"sum_hessian":[4.04797E2,3.948339E2,9.963108E0,3.7567532E2,1.9158566E1,3.1608194E2,5.959341E1,1.5409078E1,3.749487E0,2.2317168E2,9.2910255E1,3.482669E1,2.4766718E1,1.0464218E0,1.4362657E1,1.58932E0,2.160167E0,1.5068421E1,2.0810326E2,6.0887497E1,3.2022762E1,2.9109732E1,5.71696E0,1.2803225E1,1.1963493E1,1.0272501E1,4.795921E0,1.9986122E2,8.242034E0,4.3382153E1,1.7505346E1,9.429869E0,2.2592894E1,2.4292776E1,4.816956E0,2.6316917E0,3.085268E0,8.731258E0,4.071966E0,2.4342961E0,9.529198E0],"tree_param":{"num_deleted":"0","num_feature":"165","num_nodes":"41","size_leaf_vector":"1"}},{"base_weights":[-3.6920562E-2,2.3336478E-2,-3.5724333E-1,-4.7173014E-1,7.625979E-2,-1.7096095E-1,-8.893353E-1,-8.0073036E-2,-9.5967036E-1,5.422361E-1,3.500881E-4,-4.436072E-1,3.7620023E-1,-2.9307666E-1,4.0505525E-2,-5.8102924E-1,4.5850053E-1,-2.9742983E-1,-8.068442E-2,7.8562444E-1,-2.6727876E-1,-4.056369E-1,9.527254E-2,-8.6941665E-1,1.3639313E-1,1.3512856E0,-6.7925006E-2,-2.6723474E-1,1.02766305E-1,9.982148E-1,-6.327401E-1,9.121346E-1,-3.438892E-1,4.3983862E-1,-7.571678E-1,4.4571522E-1,-9.1908914E-1,-6.116627E-1,1.7704676E-1,3.6229335E-2,-9.39363E-1,6.04298E-1,-6.920897E-1,-7.873504E-2,2.1681218E0,4.590349E-1,-2.4905477E-1,1.884733E-1,-1.3318066E-1,2.1752847E-2,5.486717E-1,-2.4136308E-1,-2.532463E-2,3.013896E-1,-1.3222389E-1,-2.0462927E-1,9.9859215E-2,-8.630809E-2,3.0390444E-1,1.4609167E-2,-2.8781188E-1,2.2460924E-1,-2.4362555E-1,1.4985492E-2,-2.861082E-1,-2.3912843E-1,1.4100793E-1,1.7760932E-2,2.636167E-1,-3.0052057E-1,-4.92821E-2,-5.23977E-2,4.4585016E-1,-1.3538681E-2,-2.53541E-1,8.624039E-1,6.876159E-2,-1.9053881E-1,2.5706327E-1],"categories":[],"categories_nodes":[],"categories_segments":[],"categories_sizes":[],"default_left":[0,0,0,0,0,0,0,0,0,0,0,0,0,0,0,0,0,0,0,0,0,0,0,0,0,0,0,0,0,0,0,0,0,0,0,0,0,0,0,0,0,0,0,0,0,0,0,0,0,0,0,0,0,0,0,0,0,0,0,0,0,0,0,0,0,0,0,0,0,0,0,0,0,0,0,0,0,0,0],"id":19,"left_children":[1,3,5,7,9,11,13,15,17,19,21,23,25,-1,-1,27,29,-1,-1,31,33,35,37,39,41,43,45,-1,47,49,51,53,55,57,59,61,63,65,67,-1,69,71,73,-1,75,77,-1,-1,-1,-1,-1,-1,-1,-1,-1,-1,-1,-1,-1,-1,-1,-1,-1,-1,-1,-1,-1,-1,-1,-1,-1,-1,-1,-1,-1,-1,-1,-1,-1],"loss_changes":[7.619278E0,8.756088E0,6.0422215E0,6.092439E0,1.0665899E1,7.256859E0,1.5644741E0,5.3923497E0,4.6715736E-2,8.532436E0,1.0069867E1,8.065791E0,7.170996E0,0E0,0E0,2.2698367E0,6.3531313E0,0E0,0E0,4.99061E0,3.9739242E0,2.2054928E1,1.2351226E1,1.4080114E0,6.0342565E0,7.3752594E0,5.2749414E0,0E0,1.4575639E0,5.1639657E0,2.925849E-1,4.160267E0,1.1478107E0,2.3489573E0,1.1183319E0,7.96389E0,1.0943775E0,4.8239727E0,1.5708303E1,0E0,6.8495274E-1,6.9862623E0,5.257573E-1,0E0,4.1854916E0,3.960291E0,0E0,0E0,0E0,0E0,0E0,0E0,0E0,0E0,0E0,0E0,0E0,0E0,0E0,0E0,0E0,0E0,0E0,0E0,0E0,0E0,0E0,0E0,0E0,0E0,0E0,0E0,0E0,0E0,0E0,0E0,0E0,0E0,0E0],"parents":[2147483647,0,0,1,1,2,2,3,3,4,4,5,5,6,6,7,7,8,8,9,9,10,10,11,11,12,12,15,15,16,16,19,19,20,20,21,21,22,22,23,23,24,24,25,25,26,26,28,28,29,29,30,30,31,31,32,32,33,33,34,34,35,35,36,36,37,37,38,38,40,40,41,41,42,42,44,44,45,45],"right_children":[2,4,6,8,10,12,14,16,18,20,22,24,26,-1,-1,28,30,-1,-1,32,34,36,38,40,42,44,46,-1,48,50,52,54,56,58,60,62,64,66,68,-1,70,72,74,-1,76,78,-1,-1,-1,-1,-1,-1,-1,-1,-1,-1,-1,-1,-1,-1,-1,-1,-1,-1,-1,-1,-1,-1,-1,-1,-1,-1,-1,-1,-1,-1,-1,-1,-1],"split_conditions":[-6.1873004E-2,-1.6960247E-1,-1.1185594E-1,-1.556599E-1,-2.0724532E-1,-1.393016E-1,1.4644945E0,-4.1389194E-1,-1.5053118E-2,-2.5408986E-1,4.6360922E-1,-1.2542881E-1,-1.9682287E-1,-2.9307666E-1,4.0505525E-2,-1.5841313E-1,-2.2719347E-1,-2.9742983E-1,-8.068442E-2,2.0873537E0,4.6360922E-1,-5.091606E-1,-2.47684E-1,-2.9389203E-1,-5.3038795E-2,-9.138345E-2,1.0355881E0,-2.6723474E-1,-1.4890754E-1,4.9381134E-1,-3.610198E-1,2.2111685E0,-5.442497E-1,-4.135057E-1,-1.3105236E0,-2.3477557E-1,-3.9151058E-2,1.6464572E-1,3.4813873E-2,3.6229335E-2,1.7021497E0,-1.705382E-1,-1.6312596E-1,-7.873504E-2,-1.8405949E-1,1.2272456E0,-2.4905477E-1,1.884733E-1,-1.3318066E-1,2.1752847E-2,5.486717E-1,-2.4136308E-1,-2.532463E-2,3.013896E-1,-1.3222389E-1,-2.0462927E-1,9.9859215E-2,-8.630809E-2,3.0390444E-1,1.4609167E-2,-2.8781188E-1,2.2460924E-1,-2.4362555E-1,1.4985492E-2,-2.861082E-1,-2.3912843E-1,1.4100793E-1,1.7760932E-2,2.636167E-1,-3.0052057E-1,-4.92821E-2,-5.23977E-2,4.4585016E-1,-1.3538681E-2,-2.53541E-1,8.624039E-1,6.876159E-2,-1.9053881E-1,2.5706327E-1],"split_indices":[51,1,96,24,106,21,135,51,72,156,2,126,40,0,0,141,45,0,0,110,2,100,102,87,120,2,52,0,28,111,51,55,154,51,79,42,57,1,54,0,155,16,59,0,106,51,0,0,0,0,0,0,0,0,0,0,0,0,0,0,0,0,0,0,0,0,0,0,0,0,0,0,0,0,0,0,0,0,0],"split_type":[0,0,0,0,0,0,0,0,0,0,0,0,0,0,0,0,0,0,0,0,0,0,0,0,0,0,0,0,0,0,0,0,0,0,0,0,0,0,0,0,0,0,0,0,0,0,0,0,0,0,0,0,0,0,0,0,0,0,0,0,0,0,0,0,0,0,0,0,0,0,0,0,0,0,0,0,0,0,0],"sum_hessian":[3.933145E2,3.3182156E2,6.1492973E1,3.1282125E1,3.0053943E2,4.652584E1,1.4967133E1,1.7998941E1,1.3283185E1,4.1240284E1,2.5929913E2,3.1178892E1,1.534695E1,1.3830836E1,1.136296E0,9.284292E0,8.714648E0,1.2283003E1,1.0001817E0,3.17299E1,9.510384E0,4.851695E1,2.107822E2,1.7691568E1,1.3487325E1,4.1634464E0,1.1183503E1,6.181449E0,3.102843E0,5.8878417E0,2.8268068E0,2.8707047E1,3.0228527E0,3.9340503E0,5.5763335E0,1.8302162E1,3.0214785E1,2.1182274E1,1.8959993E2,1.1193391E0,1.657223E1,8.792278E0,4.6950464E0,1.6272876E0,2.5361588E0,6.8475122E0,4.335991E0,1.506079E0,1.5967641E0,3.298901E0,2.5889409E0,1.7966094E0,1.0301974E0,2.711087E1,1.5961764E0,2.010304E0,1.0125488E0,1.9530791E0,1.9809712E0,1.2708153E0,4.3055186E0,1.5075495E1,3.2266681E0,1.0264875E0,2.9188297E1,1.8307034E1,2.8752396E0,1.6326465E2,2.633528E1,1.5067332E1,1.5048964E0,5.094362E0,3.6979165E0,1.1459119E0,3.5491345E0,1.505075E0,1.0310838E0,1.6668459E0,5.180666E0],"tree_param":{"num_deleted":"0","num_feature":"165","num_nodes":"79","size_leaf_vector":"1"}},{"base_weights":[-3.9081052E-2,-1.5074846E-2,-7.8947675E-1,-7.2118837E-1,8.103893E-3,-2.7956188E-1,5.7640027E-2,6.886712E-3,-8.532307E-1,1.0439704E-1,-1.680928E-1,-7.532257E-2,-2.6779953E-1,1.6541861E-1,-6.2460804E-1,-2.6420546E-1,9.8443025E-1,-2.598941E-1,2.8495383E-1,1.258201E-1,-7.694159E-1,-5.491255E-1,-2.75191E-2,1.300687E0,-1.841839E-1,5.049771E-2,-2.1037908E-1,1.0975269E-1,-1.4646383E-1,-2.580116E-1,-4.0208027E-2,-2.5304762E-1,-7.748108E-2,2.8522084E-2,-2.2348951E-1,5.016506E-2,5.14389E-1],"categories":[],"categories_nodes":[],"categories_segments":[],"categories_sizes":[],"default_left":[0,0,0,0,0,0,0,0,0,0,0,0,0,0,0,0,0,0,0,0,0,0,0,0,0,0,0,0,0,0,0,0,0,0,0,0,0],"id":20,"left_children":[1,3,5,7,9,-1,-1,-1,11,13,15,-1,-1,17,19,21,23,25,27,-1,29,31,33,35,-1,-1,-1,-1,-1,-1,-1,-1,-1,-1,-1,-1,-1],"loss_changes":[6.769325E0,5.992644E0,1.8074532E0,1.1630011E0,6.0432467E0,0E0,0E0,0E0,1.117754E-2,1.0346638E1,1.4204919E1,0E0,0E0,1.0916643E1,3.0431843E0,7.874034E0,5.8038263E0,9.060266E0,1.0620128E1,0E0,8.149948E-1,4.322585E0,5.783826E0,3.7421389E0,0E0,0E0,0E0,0E0,0E0,0E0,0E0,0E0,0E0,0E0,0E0,0E0,0E0],"parents":[2147483647,0,0,1,1,2,2,3,3,4,4,8,8,9,9,10,10,13,13,14,14,15,15,16,16,17,17,18,18,20,20,21,21,22,22,23,23],"right_children":[2,4,6,8,10,-1,-1,-1,12,14,16,-1,-1,18,20,22,24,26,28,-1,30,32,34,36,-1,-1,-1,-1,-1,-1,-1,-1,-1,-1,-1,-1,-1],"split_conditions":[1.9686214E0,-3.915111E-2,-2.4539454E-2,-4.882697E-1,-1.7095707E-1,-2.7956188E-1,5.7640027E-2,6.886712E-3,-1.6092606E-1,1.0791721E-2,-1.282387E-2,-7.532257E-2,-2.6779953E-1,4.6360922E-1,-2.3935945E-1,8.870579E-1,-5.6358688E-2,-5.091606E-1,-7.4917056E-2,1.258201E-1,1.4772046E0,-2.358801E-1,2.020035E-2,-1.6431269E-1,-1.841839E-1,5.049771E-2,-2.1037908E-1,1.0975269E-1,-1.4646383E-1,-2.580116E-1,-4.0208027E-2,-2.5304762E-1,-7.748108E-2,2.8522084E-2,-2.2348951E-1,5.016506E-2,5.14389E-1],"split_indices":[52,57,33,52,17,0,0,0,66,96,101,0,0,2,40,19,15,100,101,0,93,48,109,10,0,0,0,0,0,0,0,0,0,0,0,0,0],"split_type":[0,0,0,0,0,0,0,0,0,0,0,0,0,0,0,0,0,0,0,0,0,0,0,0,0,0,0,0,0,0,0,0,0,0,0,0,0],"sum_hessian":[3.7543878E2,3.647888E2,1.0650014E1,1.0636798E1,3.5415198E2,9.345054E0,1.3049604E0,1.7274804E0,8.909318E0,2.2926436E2,1.2488762E2,1.0003943E0,7.9089236E0,2.1226938E2,1.6994974E1,1.1598594E2,8.901685E0,4.6312572E1,1.659568E2,1.839152E0,1.5155823E1,5.2031277E1,6.395466E1,7.586797E0,1.3148878E0,2.382044E1,2.2492132E1,1.5071579E2,1.5241011E1,1.2954603E1,2.20122E0,2.491523E1,2.7116049E1,5.5362194E1,8.592464E0,2.4050853E0,5.1817117E0],"tree_param":{"num_deleted":"0","num_feature":"165","num_nodes":"37","size_leaf_vector":"1"}},{"base_weights":[-3.805732E-2,-2.7035484E-1,3.4917437E-2,-3.4072834E-1,6.990829E-1,8.5335016E-2,-4.425427E-1,-2.4870034E-1,-8.3585644E-1,2.9431087E-1,-6.652226E-2,-1.100784E-1,2.0662668E-1,-6.288143E-1,1.2714861E-1,-1.5738513E-1,-8.276102E-1,6.484888E-2,-2.842347E-1,2.1910723E-2,-8.354262E-1,3.776914E-1,-1.4480087E-1,-8.7307334E-1,-7.0455804E-2,8.343589E-1,-6.4644057E-1,-2.0882413E-1,3.063506E-1,3.800706E-2,-9.572509E-1,-1.3959055E-1,7.552647E-1,-9.483944E-1,6.556504E-2,1.8007162E-1,8.489925E-1,6.8102676E-1,-3.6359948E-1,-9.521534E-1,-4.32342E-2,4.2546484E-1,-2.1532296E-1,-7.010212E-2,5.5642873E-1,-2.181372E-1,-5.926888E-2,-7.8461856E-2,2.747113E-1,-3.124888E-1,-8.80232E-2,2.875877E-1,-6.3925475E-2,8.668066E-2,5.645605E-1,-3.0337298E-1,-1.01286E-1,2.7707027E-2,3.8044268E-1,7.621867E-2,5.658359E-1,4.0657148E-1,-3.651733E-2,-1.5417828E-1,1.8051712E-1,-6.849037E-2,-3.0006057E-1,-2.1846086E-2,3.3440956E-1],"categories":[],"categories_nodes":[],"categories_segments":[],"categories_sizes":[],"default_left":[0,0,0,0,0,0,0,0,0,0,0,0,0,0,0,0,0,0,0,0,0,0,0,0,0,0,0,0,0,0,0,0,0,0,0,0,0,0,0,0,0,0,0,0,0,0,0,0,0,0,0,0,0,0,0,0,0,0,0,0,0,0,0,0,0,0,0,0,0],"id":21,"left_children":[1,3,5,7,9,11,13,15,17,-1,-1,19,21,23,25,27,29,-1,-1,31,33,35,37,39,41,43,45,47,-1,-1,49,51,53,55,-1,57,59,61,63,65,-1,67,-1,-1,-1,-1,-1,-1,-1,-1,-1,-1,-1,-1,-1,-1,-1,-1,-1,-1,-1,-1,-1,-1,-1,-1,-1,-1,-1],"loss_changes":[6.2065945E0,6.207967E0,6.755638E0,3.5400887E0,1.8401875E0,6.0253797E0,2.9255514E0,3.6117086E0,1.668582E0,0E0,0E0,9.366514E0,9.469617E0,2.7174969E0,4.609305E0,3.9947188E0,1.2853694E0,0E0,0E0,1.0005107E1,2.0001688E0,9.683761E0,9.64302E0,6.7486954E-1,2.6451266E0,5.144623E0,5.428672E-3,3.8317316E0,0E0,0E0,1.6494179E-1,5.8012333E0,7.463564E0,1.8784142E-1,0E0,7.1058664E0,1.8606512E1,6.2477775E0,6.3690133E0,2.0746136E-1,0E0,1.7141415E0,0E0,0E0,0E0,0E0,0E0,0E0,0E0,0E0,0E0,0E0,0E0,0E0,0E0,0E0,0E0,0E0,0E0,0E0,0E0,0E0,0E0,0E0,0E0,0E0,0E0,0E0,0E0],"parents":[2147483647,0,0,1,1,2,2,3,3,4,4,5,5,6,6,7,7,8,8,11,11,12,12,13,13,14,14,15,15,16,16,19,19,20,20,21,21,22,22,23,23,24,24,25,25,26,26,27,27,30,30,31,31,32,32,33,33,35,35,36,36,37,37,38,38,39,39,41,41],"right_children":[2,4,6,8,10,12,14,16,18,-1,-1,20,22,24,26,28,30,-1,-1,32,34,36,38,40,42,44,46,48,-1,-1,50,52,54,56,-1,58,60,62,64,66,-1,68,-1,-1,-1,-1,-1,-1,-1,-1,-1,-1,-1,-1,-1,-1,-1,-1,-1,-1,-1,-1,-1,-1,-1,-1,-1,-1,-1],"split_conditions":[-1.24381065E-1,-1.49982115E-2,7.0740616E-1,1.9325386E-1,6.692197E-1,-5.253096E-1,1.0574569E0,2.459222E0,-4.1248453E-1,2.9431087E-1,-6.652226E-2,1.0766691E0,1.1924207E0,-2.3610947E-1,-3.6247596E-1,2.168547E0,-2.003721E-1,6.484888E-2,-2.842347E-1,9.955469E-1,-2.2680944E-1,8.003106E-1,-7.617077E-1,-1.4514071E-1,-1.2972343E-1,-4.3689853E-1,-2.3698097E-1,-1.282387E-2,3.063506E-1,3.800706E-2,-1.5143836E-1,-8.749016E-2,-8.014547E-2,1.8636753E-1,6.556504E-2,2.7800646E0,-2.550244E-1,-2.5280492E-2,-1.7329347E-1,-6.041526E-1,-4.32342E-2,1.1711064E-1,-2.1532296E-1,-7.010212E-2,5.5642873E-1,-2.181372E-1,-5.926888E-2,-7.8461856E-2,2.747113E-1,-3.124888E-1,-8.80232E-2,2.875877E-1,-6.3925475E-2,8.668066E-2,5.645605E-1,-3.0337298E-1,-1.01286E-1,2.7707027E-2,3.8044268E-1,7.621867E-2,5.658359E-1,4.0657148E-1,-3.651733E-2,-1.5417828E-1,1.8051712E-1,-6.849037E-2,-3.0006057E-1,-2.1846086E-2,3.3440956E-1],"split_indices":[129,72,89,1,88,156,99,11,144,0,0,138,148,77,54,11,130,0,0,99,45,135,88,93,64,54,40,101,0,0,132,160,23,120,0,53,83,1,137,156,0,147,0,0,0,0,0,0,0,0,0,0,0,0,0,0,0,0,0,0,0,0,0,0,0,0,0,0,0],"split_type":[0,0,0,0,0,0,0,0,0,0,0,0,0,0,0,0,0,0,0,0,0,0,0,0,0,0,0,0,0,0,0,0,0,0,0,0,0,0,0,0,0,0,0,0,0,0,0,0,0,0,0,0,0,0,0,0,0,0,0,0,0,0,0,0,0,0,0,0,0],"sum_hessian":[3.6457382E2,8.6504105E1,2.780697E2,8.125422E1,5.2498827E0,2.5225412E2,2.5815596E1,6.978566E1,1.1468561E1,3.969152E0,1.280731E0,9.664365E1,1.5561046E2,1.9376345E1,6.439252E0,6.137625E1,8.409409E0,1.0099891E0,1.0458572E1,8.258561E1,1.4058036E1,1.0461311E2,5.0997353E1,1.3087468E1,6.288876E0,3.3229117E0,3.11634E0,5.9597866E1,1.7783866E0,1.0084978E0,7.4009113E0,6.834429E1,1.4241318E1,1.2787599E1,1.2704368E0,7.468096E1,2.9932156E1,1.0238994E1,4.0758358E1,1.1530426E1,1.5570421E0,3.7548132E0,2.5340629E0,2.000272E0,1.3226396E0,2.1161094E0,1.0002306E0,5.7662212E1,1.9356532E0,6.061375E0,1.3395361E0,3.5314093E0,6.481289E1,1.0960825E1,3.2804923E0,1.100002E1,1.7875786E0,7.0113625E1,4.5673323E0,1.9812195E1,1.0119962E1,5.190976E0,5.0480175E0,3.567099E1,5.0873694E0,1.0757463E0,1.04546795E1,2.6983633E0,1.05645E0],"tree_param":{"num_deleted":"0","num_feature":"165","num_nodes":"69","size_leaf_vector":"1"}},{"base_weights":[-3.125375E-2,7.1714096E-2,-2.1730578E-1,-5.3969127E-1,1.3190496E-1,-1.6069925E-1,-8.6171067E-1,1.4888941E-1,-6.768398E-1,2.0048755E-1,-4.1718656E-1,1.4735709E-1,-2.978217E-1,-1.5205572E-2,-2.8382266E-1,-8.088771E-2,-9.0025824E-1,3.50815E-1,-1.1543359E-1,-6.0842216E-1,3.312217E-1,-7.015094E-1,3.6743E-1,-3.3455503E-1,3.489288E-1,-5.5230063E-1,5.4185176E-1,-2.9120126E-1,-8.489016E-2,2.9835826E-1,1.6055839E0,-2.2911932E-1,6.2231165E-1,1.3186261E-1,-7.2144634E-1,-5.207052E-1,1.0721413E0,-2.6937416E-1,6.3654184E-2,3.173628E-2,1.1461785E0,-4.2635328E-1,2.9753947E-1,-2.186669E-1,-1.3666193E-2,2.1161392E-1,2.8106552E-2,1.284509E-1,-4.970617E-2,5.952188E-1,6.157043E-2,-1.3881715E-1,4.869218E-2,-1.6035528E-1,2.6297036E-1,-2.3874025E-1,7.289473E-2,-3.685726E-2,-2.0881392E-1,4.7042447E-1,2.0967763E-2,-1.303267E-1,1.6031638E-1,4.667671E-1,-6.0544E-2,4.4907033E-2,-1.5276071E-1,1.4907643E-1,-1.4632402E-1],"categories":[],"categories_nodes":[],"categories_segments":[],"categories_sizes":[],"default_left":[0,0,0,0,0,0,0,0,0,0,0,0,0,0,0,0,0,0,0,0,0,0,0,0,0,0,0,0,0,0,0,0,0,0,0,0,0,0,0,0,0,0,0,0,0,0,0,0,0,0,0,0,0,0,0,0,0,0,0,0,0,0,0,0,0,0,0,0,0],"id":22,"left_children":[1,3,5,7,9,11,13,-1,15,17,19,21,23,-1,-1,25,27,29,31,33,35,37,39,41,-1,43,45,-1,-1,47,49,51,53,-1,55,57,59,-1,-1,61,63,65,67,-1,-1,-1,-1,-1,-1,-1,-1,-1,-1,-1,-1,-1,-1,-1,-1,-1,-1,-1,-1,-1,-1,-1,-1,-1,-1],"loss_changes":[6.8430305E0,8.541701E0,4.5020747E0,3.2948403E0,8.004859E0,5.035692E0,6.392412E-1,0E0,2.4321432E0,8.953033E0,3.59066E0,7.182578E0,4.795228E0,0E0,0E0,2.1277876E0,3.1580257E-1,7.906972E0,5.2804737E0,2.592815E0,4.008991E0,1.6217175E0,7.830556E0,4.8192196E0,0E0,3.283429E-1,1.6758037E-1,0E0,0E0,7.5116987E0,2.1815205E0,4.9955025E0,2.9535484E0,0E0,1.4641562E0,1.3883221E-1,1.5062399E0,0E0,0E0,5.4003963E0,5.3045645E0,3.465806E0,1.9402324E0,0E0,0E0,0E0,0E0,0E0,0E0,0E0,0E0,0E0,0E0,0E0,0E0,0E0,0E0,0E0,0E0,0E0,0E0,0E0,0E0,0E0,0E0,0E0,0E0,0E0,0E0],"parents":[2147483647,0,0,1,1,2,2,3,3,4,4,5,5,6,6,8,8,9,9,10,10,11,11,12,12,15,15,16,16,17,17,18,18,19,19,20,20,21,21,22,22,23,23,25,25,26,26,29,29,30,30,31,31,32,32,34,34,35,35,36,36,39,39,40,40,41,41,42,42],"right_children":[2,4,6,8,10,12,14,-1,16,18,20,22,24,-1,-1,26,28,30,32,34,36,38,40,42,-1,44,46,-1,-1,48,50,52,54,-1,56,58,60,-1,-1,62,64,66,68,-1,-1,-1,-1,-1,-1,-1,-1,-1,-1,-1,-1,-1,-1,-1,-1,-1,-1,-1,-1,-1,-1,-1,-1,-1,-1],"split_conditions":[-7.501708E-2,-4.6755582E-1,-8.007525E-2,-4.243399E-1,1.9036033E0,-1.4429368E0,-1.2393829E-1,1.4888941E-1,-1.4990395E-1,-3.786607E-1,-2.5808254E-1,-8.2278825E-2,-8.0092505E-2,-1.5205572E-2,-2.8382266E-1,-1.5955907E-1,3.5891004E-2,-5.896631E-2,1.1399142E0,-1.5566194E-1,-1.5356204E-1,1.4171118E0,-2.1903563E0,-3.913892E-2,3.489288E-1,-2.781855E-1,-7.565364E-1,-2.9120126E-1,-8.489016E-2,-8.203432E-2,4.0459573E-1,-1.6401559E-1,-3.9146356E-2,1.3186261E-1,-9.073018E-2,1.9447228E-1,4.9661834E-2,-2.6937416E-1,6.3654184E-2,1.4613303E0,1.8807044E0,-4.8831645E-1,-5.130044E-2,-2.186669E-1,-1.3666193E-2,2.1161392E-1,2.8106552E-2,1.284509E-1,-4.970617E-2,5.952188E-1,6.157043E-2,-1.3881715E-1,4.869218E-2,-1.6035528E-1,2.6297036E-1,-2.3874025E-1,7.289473E-2,-3.685726E-2,-2.0881392E-1,4.7042447E-1,2.0967763E-2,-1.303267E-1,1.6031638E-1,4.667671E-1,-6.0544E-2,4.4907033E-2,-1.5276071E-1,1.4907643E-1,-1.4632402E-1],"split_indices":[120,54,29,143,97,55,107,0,1,51,84,101,29,0,0,1,1,47,136,24,52,128,55,63,0,137,88,0,0,164,110,10,63,0,123,149,54,0,0,157,113,52,130,0,0,0,0,0,0,0,0,0,0,0,0,0,0,0,0,0,0,0,0,0,0,0,0,0,0],"split_type":[0,0,0,0,0,0,0,0,0,0,0,0,0,0,0,0,0,0,0,0,0,0,0,0,0,0,0,0,0,0,0,0,0,0,0,0,0,0,0,0,0,0,0,0,0,0,0,0,0,0,0,0,0,0,0,0,0,0,0,0,0,0,0,0,0,0,0,0,0],"sum_hessian":[3.5538736E2,2.2917065E2,1.2621669E2,1.9825125E1,2.0934554E2,1.171732E2,9.043483E0,2.0115607E0,1.7813562E1,1.8666553E2,2.2680012E1,3.6068302E1,8.1104904E1,1.0029157E0,8.040567E0,5.228629E0,1.2584934E1,1.2640616E2,6.025936E1,1.8213171E1,4.4668407E0,6.975343E0,2.9092957E1,7.986771E1,1.2371978E0,3.0402644E0,2.1883647E0,1.0782533E1,1.802401E0,1.22521805E2,3.8843539E0,5.2810722E1,7.448641E0,1.4918413E0,1.672133E1,2.2160227E0,2.2508183E0,5.7554364E0,1.2199069E0,2.1056795E1,8.036162E0,7.002374E1,9.843966E0,1.9295069E0,1.1107576E0,1.1828325E0,1.0055321E0,9.5800125E1,2.6721676E1,2.7297406E0,1.1546135E0,3.2958717E1,1.9852003E1,1.1435181E0,6.305123E0,1.5686776E1,1.0345544E0,1.1981366E0,1.0178863E0,1.1280599E0,1.1227583E0,1.0995405E1,1.006139E1,6.044695E0,1.9914674E0,8.703332E0,6.1320408E1,8.14355E0,1.700415E0],"tree_param":{"num_deleted":"0","num_feature":"165","num_nodes":"69","size_leaf_vector":"1"}},{"base_weights":[-2.7661553E-2,-1.5829036E-3,-5.594207E-1,-4.5419154E-1,3.4428097E-2,-7.2038275E-1,1.7736202E-1,-2.1741718E-1,-8.541261E-1,7.667261E-2,-3.4563392E-1,5.524264E-2,-8.377196E-1,2.029319E-1,-1.5914166E-1,-6.1775166E-1,4.0222502E-1,-2.818732E-1,-7.312007E-2,-5.0414894E-3,5.672959E-1,-7.417508E-1,5.378227E-1,-7.994994E-3,-2.7540222E-1,-8.28044E-1,7.701755E-2,8.955218E-1,-4.1007137E-1,9.1071546E-2,-3.1602073E-1,2.1819192E-1,1.2506347E0,9.041733E-2,-8.52246E-1,-2.0225449E-1,8.4656703E-1,-2.813107E-1,7.3356656E-5,-4.6833567E-2,3.9688954E-1,7.8007025E-3,-1.8371952E-1,5.496728E-2,-1.0931751E-1,3.4274574E-2,-1.742664E-1,2.2815792E-1,-1.4203456E-1,5.122181E-1,-1.7259616E-1,-1.4107488E-2,-3.0198044E-1,3.5119587E-1,-1.1221295E-1],"categories":[],"categories_nodes":[],"categories_segments":[],"categories_sizes":[],"default_left":[0,0,0,0,0,0,0,0,0,0,0,0,0,0,0,0,0,0,0,0,0,0,0,0,0,0,0,0,0,0,0,0,0,0,0,0,0,0,0,0,0,0,0,0,0,0,0,0,0,0,0,0,0,0,0],"id":23,"left_children":[1,3,5,7,9,11,13,15,17,19,21,-1,23,-1,-1,25,27,-1,-1,29,31,33,35,-1,-1,37,-1,39,41,43,45,47,49,-1,51,-1,53,-1,-1,-1,-1,-1,-1,-1,-1,-1,-1,-1,-1,-1,-1,-1,-1,-1,-1],"loss_changes":[4.773666E0,5.38129E0,2.0362864E0,2.118454E0,4.9374237E0,1.5769901E0,1.6616076E0,4.372651E0,2.2514772E-1,1.1071633E1,1.1169999E1,0E0,7.599573E-1,0E0,0E0,2.142457E0,3.2246566E0,0E0,0E0,7.13239E0,9.132734E0,2.7546911E0,4.3530846E0,0E0,0E0,7.901335E-1,0E0,2.3420713E0,3.1416202E-1,7.7195306E0,6.48661E0,1.0602892E1,1.1924953E1,0E0,2.4206314E0,0E0,3.7999487E0,0E0,0E0,0E0,0E0,0E0,0E0,0E0,0E0,0E0,0E0,0E0,0E0,0E0,0E0,0E0,0E0,0E0,0E0],"parents":[2147483647,0,0,1,1,2,2,3,3,4,4,5,5,6,6,7,7,8,8,9,9,10,10,12,12,15,15,16,16,19,19,20,20,21,21,22,22,25,25,27,27,28,28,29,29,30,30,31,31,32,32,34,34,36,36],"right_children":[2,4,6,8,10,12,14,16,18,20,22,-1,24,-1,-1,26,28,